,0,1,2,3,4,5,6,7,8,9,10,11,12,13,14,15,16,17,18,19,20,21,22,23,24,25,26,27,28,29,30,31
complex_01_A_a.png,0.5753005146980286,1.6918689012527466,-1.516878604888916,-0.9574458599090576,-0.46000251173973083,-0.3810197412967682,0.524508535861969,-0.18441908061504364,1.0467793941497803,-0.012327470816671848,-0.633223295211792,0.17233599722385406,0.06890604645013809,-1.7690484523773193,-1.7064435482025146,0.33069342374801636,-0.04319436103105545,-0.22311365604400635,1.3615446090698242,-0.6654254198074341,-1.700472354888916,1.296702265739441,0.5363393425941467,-1.1668976545333862,0.28123152256011963,-0.5280569195747375,-0.1410227119922638,-1.6021419763565063,-0.1424839347600937,-1.5287771224975586,2.1640703678131104,-0.6265818476676941
complex_01_A_b.png,0.8893347382545471,3.082101345062256,-1.298867106437683,-0.37079572677612305,-1.0508570671081543,0.41870108246803284,1.6780593395233154,0.06693898141384125,0.5252898931503296,0.1881021410226822,-0.6727761030197144,0.742233395576477,-0.5209061503410339,-2.2557735443115234,-2.246004343032837,0.03151329979300499,-0.8038836717605591,0.2623903155326843,1.543832778930664,-1.4987270832061768,-1.99362051486969,1.5227243900299072,1.0631427764892578,-0.5560334920883179,-0.49759960174560547,-1.1805471181869507,-0.016245156526565552,-0.8940243721008301,-0.7361268401145935,-1.480906367301941,1.9266808032989502,-0.8317503333091736
complex_02_A_a.png,0.011093252338469028,2.145179510116577,-1.1384069919586182,0.4048755466938019,-1.7322707176208496,-2.4863181114196777,1.1375585794448853,-0.8793036341667175,0.6640108823776245,-0.07148745656013489,-1.4876409769058228,1.4842497110366821,-1.9889500141143799,-1.0230988264083862,-2.3758761882781982,-1.0744556188583374,-0.6358401775360107,0.29846397042274475,1.675415277481079,-0.6161251068115234,-1.683186650276184,0.7457194328308105,-0.8969432711601257,-1.4199556112289429,-0.25133997201919556,-0.4330848455429077,-0.7751075029373169,0.8748067021369934,0.6209330558776855,-0.5922077298164368,2.4844303131103516,-0.18979716300964355
complex_02_A_b.png,-0.654923677444458,2.5050387382507324,-0.5758237838745117,1.1271154880523682,-1.8091367483139038,-1.4603573083877563,1.9490753412246704,-0.9494092464447021,0.8373511433601379,-0.1013307049870491,-0.5907583236694336,1.5706909894943237,-2.791252613067627,-0.6589213609695435,-2.6012628078460693,0.19026285409927368,-0.7281876802444458,-0.28643685579299927,1.134431004524231,-0.08617224544286728,-1.5879238843917847,0.9167701601982117,-0.7960124015808105,-1.832669973373413,-0.17614096403121948,-0.4821757972240448,-0.7298594117164612,0.37793397903442383,0.8517735004425049,-0.05528149753808975,2.0209038257598877,-0.3897404372692108
complex_03_A_a.png,-0.6318793296813965,0.9789867401123047,-2.511117935180664,-1.0271917581558228,0.3809327185153961,-1.0428537130355835,0.10591790080070496,-1.272420048713684,0.2398529201745987,-0.3627065420150757,-0.26593250036239624,0.46616268157958984,-1.085648536682129,-0.9125992655754089,-1.0097362995147705,0.018327808007597923,0.753680408000946,-0.5367315411567688,0.3408602178096771,-0.20758330821990967,-1.0721765756607056,1.508304238319397,-0.21451644599437714,0.3822632133960724,-0.6569619178771973,-0.7530961036682129,0.09761489182710648,-0.053594641387462616,0.8394400477409363,-1.5452858209609985,0.5929470062255859,1.4495446681976318
complex_03_A_b.png,-1.100081205368042,1.7225085496902466,-2.0532188415527344,-1.1594637632369995,-0.0933312475681305,-0.9384155869483948,1.4704744815826416,-1.2605412006378174,-0.0484636090695858,-0.9858242273330688,-0.18188469111919403,0.6040816307067871,-1.8584840297698975,-1.4176623821258545,-1.0855077505111694,0.22549127042293549,1.0922291278839111,-0.6205257773399353,0.4333983063697815,-0.23467741906642914,-1.3641546964645386,2.0452487468719482,-0.1898205727338791,1.2840096950531006,-0.9680140018463135,-1.3616641759872437,-0.12566295266151428,0.02745242603123188,0.6814433336257935,-1.144714593887329,1.2073789834976196,0.9038941860198975
complex_04_A_a.png,0.6211413741111755,2.5619606971740723,-1.6475955247879028,-0.24392014741897583,0.7387029528617859,-1.1010581254959106,1.4437800645828247,-1.6493197679519653,0.7633726000785828,-0.17411640286445618,-2.1328389644622803,0.09632278233766556,-1.0847150087356567,-1.4433350563049316,-1.5998848676681519,-1.0679651498794556,-0.4701480269432068,-0.19470000267028809,2.531466484069824,-1.1659530401229858,-2.375791549682617,1.2346786260604858,0.9979149103164673,-0.11550040543079376,0.6530502438545227,-0.3206384778022766,0.2022845596075058,-0.005347906611859798,1.709782600402832,-0.7337048053741455,2.171602249145508,0.9726992845535278
complex_04_A_b.png,-0.1668451577425003,1.7008283138275146,-1.0523817539215088,-0.4712457060813904,0.3622608482837677,-1.076107144355774,1.2626757621765137,-1.8065263032913208,0.891715943813324,-0.41472989320755005,-1.6223338842391968,-0.4334501326084137,-0.8472943305969238,-1.3859753608703613,-1.452124834060669,-1.3193942308425903,-0.03729661926627159,-0.14146281778812408,2.7034077644348145,-1.1111153364181519,-1.6304495334625244,1.0295019149780273,0.8858938813209534,-0.444161981344223,0.8787370324134827,-0.537466287612915,0.7021387815475464,0.6331543922424316,1.3143614530563354,-1.2118502855300903,2.4526031017303467,0.2166774570941925
complex_05_A_a.png,-0.2323397845029831,1.864287257194519,-1.0079004764556885,-0.669157862663269,-0.22064317762851715,-0.14295901358127594,2.2052993774414062,0.21714936196804047,0.2810380160808563,-0.3101672828197479,-1.1917322874069214,1.2547352313995361,-1.2537963390350342,-0.9448831081390381,-1.1693446636199951,-0.3247188627719879,0.1895485371351242,-0.21145986020565033,0.4725765585899353,-0.9534560441970825,-1.0440661907196045,1.398616909980774,-0.16523778438568115,-0.45105165243148804,-0.07715678215026855,-0.49637672305107117,-1.1417089700698853,0.491930216550827,-0.2311049997806549,-1.3377997875213623,2.159909963607788,0.3732603192329407
complex_05_A_b.png,0.15307199954986572,1.4684326648712158,-0.8778876066207886,-0.1367591768503189,0.478002667427063,-0.22398731112480164,1.5990111827850342,-0.8025733828544617,1.3547741174697876,-0.9887009263038635,-1.6536602973937988,0.925067126750946,-1.2432506084442139,-1.9731422662734985,-1.4132455587387085,-0.4109715521335602,0.2238665372133255,-0.22113962471485138,1.0590534210205078,-0.49303457140922546,-1.6878159046173096,1.9152030944824219,0.3027280569076538,-1.161790132522583,-0.5600633025169373,0.5123162865638733,-0.5497515797615051,0.8107999563217163,-0.8742194771766663,-1.974959135055542,2.228152275085449,0.007639740128070116
complex_06_A_a.png,0.9192837476730347,3.601304531097412,-1.7355846166610718,0.2385932058095932,-0.018643278628587723,0.2629387378692627,1.3709443807601929,0.19690421223640442,1.3926072120666504,-0.6113719940185547,-0.9259353280067444,0.8433575630187988,-0.6761317253112793,-1.5052145719528198,-1.504954218864441,-0.27510780096054077,-0.22019794583320618,0.14677190780639648,0.3476777970790863,-0.6133590340614319,-1.5093083381652832,0.22677618265151978,0.9537566900253296,-0.19679541885852814,0.48031991720199585,-0.04611595720052719,-0.037819359451532364,0.12463831156492233,0.24761849641799927,-0.8411133289337158,2.0771703720092773,-0.4840163290500641
complex_06_A_b.png,1.0012294054031372,2.255828857421875,-0.8070642948150635,-0.20549160242080688,-0.008315513841807842,0.2754838168621063,1.0015921592712402,-0.02743062749505043,1.4766732454299927,0.17719325423240662,-0.7044170498847961,0.4546035826206207,-0.5695981979370117,-0.07758468389511108,-1.3201535940170288,-0.11877667158842087,-0.6474664807319641,0.26551753282546997,0.8311232328414917,-1.263431191444397,-1.8206835985183716,-0.07607757300138474,1.3696614503860474,-0.4246039092540741,0.7526826858520508,-0.40511566400527954,-0.6571598649024963,-0.08886148035526276,0.46802762150764465,-0.7993422150611877,2.249828338623047,0.1022610068321228
complex_07_A_a.png,-0.27113229036331177,2.294832706451416,-1.5166922807693481,0.04695853590965271,-0.8129871487617493,-0.7395364046096802,0.7348023056983948,-1.5811704397201538,0.8186525702476501,-0.920470654964447,-0.5265070199966431,-0.246501162648201,-1.1929067373275757,-0.4932475686073303,0.13658663630485535,-0.08153453469276428,-0.32798904180526733,0.9145792126655579,1.7268867492675781,-0.9479666948318481,-0.7061222791671753,0.4099698066711426,0.6897044777870178,-0.7138714790344238,1.203135371208191,-0.3884625732898712,-1.1753767728805542,0.8957206010818481,0.5542327165603638,-0.8068723678588867,2.775857448577881,-1.6959400177001953
complex_07_A_b.png,0.43030163645744324,1.481091022491455,-0.725095808506012,-0.29762816429138184,-0.7668060064315796,-0.9139832854270935,0.7024256587028503,-1.5919328927993774,0.9454026222229004,-1.4195693731307983,-0.5493674278259277,-0.5701985955238342,-1.1300486326217651,-0.41371476650238037,-0.29437124729156494,0.37285855412483215,-0.2859852612018585,0.21396642923355103,1.646851658821106,-0.7740277647972107,-1.1230672597885132,0.15690965950489044,-0.045792873948812485,-0.17638564109802246,1.541558861732483,-1.0178945064544678,-1.321057677268982,0.6920127272605896,0.9188715815544128,-1.0069063901901245,3.047239303588867,-0.8064954280853271
complex_08_A_a.png,-0.06328003853559494,1.8672382831573486,-1.7392476797103882,0.4367111623287201,0.009441541507840157,-0.7079085111618042,0.9084047079086304,-1.2415547370910645,0.3178570568561554,-0.4421279728412628,-1.0340893268585205,1.8410714864730835,-3.9368298053741455,-0.8957139253616333,-3.4761812686920166,-0.8306376934051514,-1.939762830734253,-0.31000563502311707,1.2068864107131958,0.3117881715297699,-1.9295588731765747,0.5896585583686829,0.8986507654190063,-1.6274902820587158,-0.2633799910545349,-0.004767296835780144,0.07173959910869598,-0.3235781490802765,1.9651856422424316,0.2423381209373474,2.5334672927856445,-0.5795091986656189
complex_08_A_b.png,-0.18981625139713287,2.112388849258423,-2.365635633468628,0.322867751121521,0.6629498600959778,-0.49238142371177673,0.37619835138320923,-1.4531084299087524,0.6500962376594543,-0.4229140877723694,-1.2173758745193481,1.849847435951233,-3.572099208831787,-0.28928977251052856,-3.032036304473877,-0.9800230264663696,-1.4464181661605835,-0.3263675570487976,1.4297780990600586,0.2616065740585327,-1.6495620012283325,0.6540391445159912,1.118330955505371,-1.989830732345581,-0.7014650702476501,0.5203371644020081,-0.2665793001651764,-0.58055579662323,2.0296127796173096,-0.06256618350744247,2.076342821121216,-0.4238892197608948
complex_09_A_a.png,0.11219534277915955,1.0878078937530518,-1.3095940351486206,0.08107741922140121,0.4559031128883362,-0.28151682019233704,1.7149014472961426,-0.9154883027076721,1.6047589778900146,-1.4208956956863403,1.050155758857727,0.9833044409751892,0.8755908012390137,-0.9898238778114319,-1.7075408697128296,0.20064318180084229,0.41095608472824097,1.4854718446731567,2.403512716293335,1.0363630056381226,-1.1166081428527832,0.03977028280496597,1.210832953453064,0.406684011220932,1.143092393875122,-1.2512998580932617,-1.1585476398468018,-0.33927100896835327,0.3383720815181732,-1.3765957355499268,1.6504558324813843,-0.6191109418869019
complex_09_A_b.png,0.8202755451202393,1.5460128784179688,-1.3701657056808472,0.22004634141921997,-0.267119824886322,-0.1587437391281128,1.7322070598602295,-1.7219799757003784,1.5340466499328613,-0.9224475026130676,0.5301366448402405,0.8062826991081238,0.43327605724334717,-1.2506963014602661,-0.7756681442260742,0.7640524506568909,-0.09742239117622375,1.9450373649597168,2.767934799194336,0.6212577819824219,-1.5624135732650757,-0.19869737327098846,0.9342085719108582,0.45833438634872437,1.0321904420852661,-1.0953773260116577,-1.541504979133606,0.2548929452896118,0.28009313344955444,-1.34836745262146,1.8505382537841797,-1.0570769309997559
complex_10_A_a.png,-0.7244539856910706,1.250569224357605,-2.072066068649292,-0.453254759311676,-0.8019049167633057,-1.7366763353347778,1.4961693286895752,-1.1534478664398193,0.29083433747291565,-0.39834660291671753,-0.9519892334938049,1.3886336088180542,-0.7110104560852051,-1.614836573600769,-1.8063498735427856,0.4075723886489868,-0.1458558440208435,-1.3092104196548462,1.5799089670181274,-0.7767004370689392,-2.063473701477051,1.5837032794952393,0.27497443556785583,-0.12895283102989197,-1.0090296268463135,-0.6588722467422485,-0.3894812762737274,0.531786322593689,0.8193209171295166,-1.0625684261322021,1.376878261566162,-0.025954989716410637
complex_10_A_b.png,0.12357736378908157,1.3486829996109009,-1.971343755722046,-0.3154968023300171,-1.0455518960952759,-1.3255776166915894,1.0135761499404907,-1.5607969760894775,0.16568520665168762,-0.6726303100585938,-1.2320476770401,1.6546518802642822,-1.6929609775543213,-1.4784330129623413,-1.2182230949401855,-0.3329716920852661,-0.72984778881073,-0.4295763373374939,1.5830512046813965,-0.19384127855300903,-1.5902714729309082,1.936790108680725,0.4191550314426422,-0.2559016942977905,-0.7753381133079529,0.04162998124957085,-0.9041518568992615,1.1075206995010376,0.6971860527992249,-0.40708521008491516,1.983401894569397,0.2625616192817688
complex_11_A_a.png,-0.25307387113571167,1.1663544178009033,-0.9080237746238708,-0.1353704035282135,-0.1501285582780838,-0.3810570538043976,1.1978663206100464,-0.8634193539619446,-1.5150783061981201,-1.072027325630188,-0.4571186602115631,1.1369457244873047,-2.1787936687469482,0.5875996351242065,-2.7117011547088623,-0.017297880724072456,-1.406232237815857,0.4302465319633484,-0.41907402873039246,-0.2427958846092224,-1.4622702598571777,0.524987518787384,-0.14504049718379974,-1.2539939880371094,-0.07916241139173508,-0.16293595731258392,-0.221338152885437,-0.1768655776977539,0.4331125020980835,-1.2520313262939453,1.3142462968826294,1.6057748794555664
complex_11_A_b.png,0.690864086151123,1.92513108253479,-1.90212082862854,0.678168535232544,0.49579063057899475,-0.27907413244247437,1.0036433935165405,-1.440118432044983,-0.9558500647544861,-1.7546128034591675,-0.2751752436161041,1.3181418180465698,-1.4850578308105469,0.4093630611896515,-2.402886390686035,-0.1496666669845581,-1.634984016418457,0.24524134397506714,0.45692411065101624,0.3065771162509918,-1.672316074371338,0.11064301431179047,0.5478952527046204,-1.7050179243087769,-0.4657895863056183,-0.12964288890361786,-0.17748083174228668,-1.484079360961914,-0.1655910611152649,-1.1690731048583984,1.6760963201522827,1.7127368450164795
complex_12_A_a.png,0.38531050086021423,0.940691351890564,-2.433701992034912,-0.6295836567878723,-0.09439840167760849,-0.5591623783111572,0.727331280708313,-0.24832576513290405,0.19020991027355194,-0.14051750302314758,-0.9748581647872925,0.7423917651176453,0.030061401426792145,-0.4453749656677246,-1.1136739253997803,-0.20200085639953613,-0.45937779545783997,0.010825521312654018,1.0296366214752197,-1.2192387580871582,-1.1497184038162231,0.4087125360965729,0.6338284015655518,-0.12210553139448166,-0.27198171615600586,-0.43357405066490173,-1.2352573871612549,0.5764750242233276,0.2019735872745514,-1.6974014043807983,1.286980390548706,-0.9933479428291321
complex_12_A_b.png,0.30127161741256714,1.23466157913208,-2.111067771911621,-1.211478590965271,-0.1834181398153305,-0.27806469798088074,1.1535449028015137,0.16772624850273132,0.11691264808177948,-1.01055908203125,-1.3430031538009644,1.102034091949463,-1.2844750881195068,-0.7720423936843872,-2.2092278003692627,-0.6680645942687988,-1.0181443691253662,0.04174996539950371,0.8600085973739624,-0.6202158331871033,-1.5251532793045044,1.5197786092758179,0.5858388543128967,-0.44961434602737427,0.6429893374443054,-0.4368932247161865,-1.702462077140808,0.4486271142959595,-0.08326316624879837,-1.4510592222213745,2.0402684211730957,0.09976329654455185
complex_13_A_a.png,0.294112890958786,2.216294288635254,-2.5020222663879395,-0.3312802314758301,0.4822644889354706,-0.9084630608558655,2.021969795227051,-1.4631086587905884,1.2697480916976929,-0.6003682613372803,-1.072372317314148,0.769254207611084,-1.367932677268982,-1.0907803773880005,-1.3026388883590698,-1.2882444858551025,-0.18713589012622833,-0.44830721616744995,1.5467981100082397,-0.36246103048324585,-0.7766438126564026,1.1962283849716187,0.20377346873283386,-1.052578330039978,0.3600926399230957,-0.3122347593307495,-0.9776153564453125,-1.1213754415512085,1.2143272161483765,-0.31472107768058777,1.609918236732483,-1.593316674232483
complex_13_A_b.png,-0.23477579653263092,2.220799446105957,-2.0898244380950928,-0.8912733197212219,0.5203489065170288,-0.1635938137769699,1.7981781959533691,-1.447363018989563,1.623347520828247,0.17132478952407837,-0.6055406928062439,1.2672326564788818,-1.516176700592041,-1.720956563949585,-1.015907645225525,-0.2975119352340698,0.6475905776023865,0.14781765639781952,1.119305968284607,-0.014385519549250603,-0.7074788212776184,1.268140435218811,-0.7758682370185852,-0.5860248804092407,1.0564842224121094,-0.8596118688583374,-0.7280892133712769,-0.17039042711257935,-0.009138877503573895,-0.2967790961265564,1.1299012899398804,-2.0759479999542236
complex_14_A_a.png,0.25606369972229004,1.928633451461792,-2.214259624481201,-1.0114235877990723,0.48039862513542175,-1.5187205076217651,2.693415403366089,-1.0274444818496704,1.2357046604156494,-0.9456979036331177,-1.1667083501815796,0.3165293037891388,-1.0834364891052246,-1.2145136594772339,-1.0113356113433838,-0.06159006431698799,0.9229051470756531,0.05407022684812546,2.3981025218963623,-0.3828222155570984,-1.795775294303894,1.4461790323257446,0.317335844039917,-0.08802244067192078,0.2497411072254181,-0.17940622568130493,-0.3513628840446472,0.8808420896530151,0.9280799031257629,-1.5426630973815918,1.951416015625,-0.016414377838373184
complex_14_A_b.png,-0.34504345059394836,1.8138386011123657,-1.7634522914886475,-0.8932862877845764,0.28474360704421997,-0.8001060485839844,2.8582992553710938,-0.6607009768486023,1.8339656591415405,-0.716477632522583,-0.28042981028556824,0.1312677562236786,-1.1005687713623047,-0.43831971287727356,-1.5258771181106567,0.4491548240184784,0.8587794899940491,-0.5045735836029053,2.538853645324707,-0.4436987340450287,-1.0978424549102783,0.7385952472686768,0.6421687602996826,-0.34379062056541443,0.9180620908737183,-0.5411756038665771,-0.3306157886981964,0.45378589630126953,0.9911792874336243,-1.0375301837921143,1.4736369848251343,0.39635735750198364
complex_15_A_a.png,1.0251271724700928,2.0608267784118652,-0.2016199380159378,-0.1937583088874817,0.5430284738540649,-0.5303190350532532,1.4483911991119385,-0.5618500113487244,0.11318562924861908,-0.4134678542613983,-1.224086880683899,0.7842210531234741,-1.3708832263946533,-2.087920904159546,-1.4769949913024902,-0.3249070346355438,0.5108674168586731,0.1443558633327484,0.4994511008262634,-0.9377570748329163,-1.2580559253692627,0.9766219258308411,1.070245623588562,-1.0023916959762573,0.5703584551811218,-0.9255006909370422,-0.9185242652893066,0.009036324918270111,0.14510323107242584,-0.06760294735431671,1.7134515047073364,0.2369442582130432
complex_15_A_b.png,0.8340597152709961,2.2019641399383545,-0.7266085147857666,-0.3144744038581848,1.308140754699707,-0.2314412146806717,1.2036370038986206,-1.6017944812774658,0.43550848960876465,-0.574373722076416,-1.1719878911972046,1.0581146478652954,-1.3384249210357666,-1.4973293542861938,-1.5991418361663818,-0.8513433337211609,0.5639333724975586,0.16354840993881226,1.0613735914230347,-1.1976937055587769,-1.6156710386276245,0.8130157589912415,1.0328580141067505,-1.2006160020828247,0.8501058220863342,-1.1391377449035645,-0.32357215881347656,-0.41287726163864136,0.26360708475112915,-0.3941613733768463,1.803575873374939,-0.034860290586948395
complex_16_A_a.png,0.5380924344062805,1.7632108926773071,-0.13498659431934357,0.40293872356414795,0.9349934458732605,-0.6501660943031311,1.8152040243148804,-2.0152945518493652,1.6620527505874634,-1.3990559577941895,0.014444026164710522,0.7466835379600525,-1.5895254611968994,-1.2635008096694946,-1.588252067565918,-0.7592231631278992,0.024970708414912224,-0.4119783937931061,1.640244483947754,0.6396249532699585,-0.5407041311264038,0.9543595910072327,1.1607661247253418,-1.0096850395202637,1.3764303922653198,-0.3485448360443115,-0.5825018286705017,-0.06333647668361664,0.40653929114341736,-0.8159613013267517,2.4480037689208984,-0.050591208040714264
complex_16_A_b.png,0.21814118325710297,1.9152014255523682,-0.7518022060394287,0.14240668714046478,1.0817292928695679,-0.4879283010959625,2.2191882133483887,-1.5918680429458618,2.238940477371216,-1.8765207529067993,0.535332977771759,1.1030112504959106,-0.42165490984916687,-0.8948819637298584,-1.6957697868347168,-0.1421690732240677,0.03488961234688759,-0.385649174451828,1.2303340435028076,1.2747530937194824,-0.2942158877849579,0.659701943397522,1.6403415203094482,-0.56035315990448,1.584148645401001,-0.2537684142589569,-1.2686794996261597,-0.08175517618656158,0.8012427091598511,-1.3480827808380127,2.2574431896209717,0.05645698308944702
complex_17_A_a.png,-1.0210200548171997,2.7030439376831055,-1.014173984527588,0.09667156636714935,-1.5405874252319336,0.8538345694541931,0.9029096961021423,-0.9172694087028503,0.4997440576553345,-1.0699107646942139,-1.6671760082244873,0.013195165432989597,-1.7862173318862915,-1.7170910835266113,-0.6769431829452515,-0.5521901249885559,0.32329660654067993,0.2913089990615845,0.4307350814342499,-0.34832900762557983,0.4373379647731781,1.7144044637680054,-0.16777417063713074,-0.9081657528877258,-0.2665349841117859,0.4699721932411194,-0.6119107604026794,1.6841325759887695,-0.058424729853868484,-1.0183693170547485,2.2818520069122314,0.8821033835411072
complex_17_A_b.png,-0.04438771679997444,2.3570144176483154,-2.6048989295959473,-0.6030614376068115,-0.733875572681427,0.1831066608428955,1.3304082155227661,-0.12332593649625778,0.8327608704566956,-0.48014283180236816,-1.805786371231079,0.5878339409828186,-0.8861277103424072,-0.5427291393280029,-0.6959598064422607,-0.33565622568130493,-0.3838043212890625,0.1446235179901123,0.32573917508125305,-0.8692001104354858,-0.02361118607223034,0.8781335949897766,-0.43883946537971497,-0.16603310406208038,-0.613677442073822,0.36144474148750305,-1.2688698768615723,1.0925588607788086,-0.5645647048950195,-1.6170285940170288,2.2801146507263184,-0.40773606300354004
complex_18_A_a.png,0.12236160784959793,1.6025363206863403,-1.0627802610397339,1.0187963247299194,1.2877111434936523,0.3637422025203705,1.9153016805648804,-2.476130485534668,0.4270150363445282,-1.3855383396148682,-0.5352551937103271,0.01690288819372654,-0.9555820226669312,-0.6376331448554993,-1.3638553619384766,-0.23943929374217987,0.4961925745010376,-0.905794620513916,1.9751551151275635,0.36746999621391296,-1.0369101762771606,1.6152219772338867,1.098081111907959,-2.2029802799224854,0.7095552682876587,-0.6878477334976196,-0.018876448273658752,0.08725572377443314,0.4275846779346466,-0.35221490263938904,1.7731479406356812,-0.6559314727783203
complex_18_A_b.png,0.8248529434204102,1.6398683786392212,-0.7397228479385376,0.14457161724567413,0.022426104173064232,-0.4377153217792511,2.0069265365600586,-1.6922276020050049,0.9783616662025452,-0.3539281189441681,-0.3883635103702545,0.7354952096939087,-1.1245429515838623,-0.7604341506958008,-1.861596941947937,-0.519561231136322,0.7585335969924927,-0.6930510997772217,1.5995091199874878,-0.1446666270494461,-1.4873064756393433,1.4931068420410156,-0.02143331617116928,-1.3724396228790283,0.21816259622573853,-1.461881160736084,-0.23035256564617157,-0.7501216530799866,1.1594610214233398,-0.3613837957382202,1.4222158193588257,0.1503007411956787
complex_19_A_a.png,-1.1423206329345703,1.375138282775879,-0.7167400121688843,-1.5220839977264404,-0.5077423453330994,0.1978483349084854,2.270707607269287,-0.0548684298992157,0.18472541868686676,0.4875171482563019,-1.2666051387786865,0.4565264582633972,-0.9621645212173462,-1.5116068124771118,-2.0782201290130615,-0.2667113244533539,0.6631824374198914,-0.5635365843772888,2.71818470954895,-1.6842005252838135,-1.9411653280258179,1.4302130937576294,0.8502403497695923,0.46862518787384033,-0.8717843890190125,-0.29471641778945923,-0.7476963996887207,0.6239615678787231,0.6096541881561279,-1.5515851974487305,1.110254168510437,-0.26133257150650024
complex_19_A_b.png,-1.805924892425537,1.075795292854309,-1.0268876552581787,-1.6364269256591797,0.2982899248600006,0.39063265919685364,2.6324832439422607,0.11478163301944733,0.2823515832424164,0.6374777555465698,-0.7207142114639282,0.11249539256095886,-0.9538295269012451,-1.1118104457855225,-1.7268614768981934,-0.2728313207626343,1.4725525379180908,-1.8444325923919678,3.077770471572876,-1.8579760789871216,-1.344425082206726,2.4016029834747314,1.767836093902588,0.5375970602035522,-0.5885621309280396,-0.42089980840682983,-0.9022977948188782,0.9648372530937195,1.4967464208602905,-1.8168665170669556,-0.03150685504078865,0.0836646631360054
complex_20_A_a.png,-0.21333898603916168,1.9718706607818604,-2.6023988723754883,-1.3092503547668457,-1.3916531801223755,-1.5438228845596313,2.1023333072662354,-1.7848258018493652,1.6044718027114868,-1.9040119647979736,-1.2045561075210571,0.027136921882629395,-2.076084852218628,0.0034914982970803976,-0.4905012845993042,-0.2122056782245636,0.0025392314419150352,-0.24322888255119324,1.0358388423919678,-0.7380473613739014,-0.8248296976089478,2.382516622543335,0.1195310577750206,-0.7201011180877686,1.1319772005081177,-1.5142512321472168,-0.8578407764434814,0.6851351857185364,0.9730836153030396,-0.6654267311096191,3.2299270629882812,-0.8086321353912354
complex_20_A_b.png,0.5027440190315247,1.0919145345687866,-1.6962945461273193,-0.455198734998703,-1.4927421808242798,-1.8384615182876587,1.2487925291061401,-1.7838176488876343,1.5014302730560303,-1.3595991134643555,-1.5641847848892212,0.058665256947278976,-2.3298022747039795,0.09054256975650787,-1.1279579401016235,-0.32286524772644043,-0.6314257383346558,0.3281956911087036,1.1052629947662354,-0.6002001762390137,-1.2848052978515625,1.2804030179977417,-0.3957340121269226,-0.5567896962165833,1.2615340948104858,-1.6062242984771729,-1.2740789651870728,0.20396685600280762,0.3838989734649658,-0.5181244611740112,3.5189695358276367,-0.9245368838310242
complex_21_A_a.png,-0.3017146587371826,2.6117801666259766,-0.5298891067504883,0.17380604147911072,-0.5618020296096802,-1.0184272527694702,2.245215892791748,-1.8318368196487427,1.3095401525497437,-1.4261995553970337,-0.21003016829490662,1.1109014749526978,-0.647513747215271,-1.5594643354415894,-1.3461954593658447,-0.5333011746406555,-0.46435558795928955,0.603628933429718,2.13218355178833,-1.1109997034072876,-0.8949682712554932,0.7990368604660034,0.8171179890632629,-0.5614665746688843,1.0730115175247192,-0.4172329306602478,-0.7936727404594421,0.23824463784694672,0.3003130853176117,-1.1789512634277344,2.945338010787964,0.787671685218811
complex_21_A_b.png,0.6563595533370972,2.246159791946411,-1.163683295249939,-0.1565641611814499,0.32673338055610657,-0.3885781168937683,1.439117431640625,-1.3787930011749268,2.0077245235443115,-1.5965627431869507,-0.757156491279602,1.4308085441589355,-1.0758943557739258,-0.7111989259719849,-1.3486403226852417,0.35532280802726746,0.5243520736694336,0.24376097321510315,0.8147400617599487,-0.68300861120224,-0.8836025595664978,0.497871071100235,0.15501129627227783,-1.4595317840576172,0.41595715284347534,-0.5140174627304077,-1.41359281539917,0.5076172351837158,0.17832796275615692,-0.7870309948921204,2.669672727584839,-0.1109158992767334
complex_22_A_a.png,1.0873020887374878,0.651875376701355,-0.616384744644165,-0.5977336168289185,0.10509192943572998,0.5617132186889648,0.9411380887031555,-0.9017527103424072,0.8050299882888794,-1.1094651222229004,-0.4611075818538666,0.9536723494529724,-0.48925599455833435,-1.2990530729293823,-2.5546391010284424,0.030424779281020164,1.0004335641860962,-0.7737649083137512,2.399590492248535,-1.716271162033081,-0.9537217020988464,2.0908005237579346,1.2037084102630615,-1.3421729803085327,-2.055044651031494,0.13549749553203583,0.7814479470252991,-1.0179247856140137,-1.0663366317749023,-1.10944664478302,1.5576283931732178,-0.3543756306171417
complex_22_A_b.png,1.8558248281478882,1.7587757110595703,-0.7152225375175476,0.007592126727104187,-0.005798902362585068,0.8524506092071533,0.4384152591228485,-0.2907901406288147,1.217644214630127,-0.8337146043777466,-1.659284234046936,0.9792125225067139,-0.9495478868484497,-0.13719864189624786,-2.475074291229248,0.24571508169174194,-0.03489977493882179,-0.35949867963790894,0.8261546492576599,-2.110023021697998,-1.9329566955566406,1.9131860733032227,0.4653937816619873,-1.620440125465393,-0.9122334718704224,-0.3538097143173218,-0.9469732046127319,-0.5762853622436523,-0.4353730082511902,-0.8249319195747375,1.8298170566558838,-0.9463356733322144
complex_23_A_a.png,-0.8128122091293335,1.960363507270813,-1.5506906509399414,0.34390562772750854,-0.7514028549194336,-0.6169745922088623,1.0062470436096191,-1.4537937641143799,1.3931734561920166,-2.0544004440307617,-1.384865403175354,1.7200435400009155,-1.6537855863571167,-0.14103156328201294,-0.646001935005188,-0.478749543428421,0.10648932307958603,0.014807384461164474,2.263728141784668,-0.4289517104625702,-0.09904737025499344,1.1772842407226562,0.2261478155851364,-0.8929930329322815,-0.523421049118042,-0.4284152090549469,-1.6742420196533203,1.3971600532531738,1.2456609010696411,0.7335953116416931,2.298715114593506,-0.9832417368888855
complex_23_A_b.png,-0.5980965495109558,2.314828634262085,-1.844649076461792,-0.7497777342796326,-1.4091901779174805,-1.4262981414794922,1.8308197259902954,-0.5708470344543457,1.5490120649337769,-0.4553312063217163,-1.7617851495742798,0.965610921382904,-1.1154741048812866,-0.6030760407447815,-0.27343687415122986,-0.6371371746063232,-0.6142749786376953,-0.06641705334186554,1.3642396926879883,-0.04820092022418976,0.07545038312673569,1.4259788990020752,-0.7100667357444763,-0.8333141207695007,-0.9097070693969727,-0.6942787170410156,-2.3945977687835693,1.5495171546936035,1.5276683568954468,-0.24785904586315155,2.464877128601074,-1.1183595657348633
complex_24_A_a.png,0.745151937007904,0.8420088291168213,-1.6111962795257568,-1.316638708114624,-0.2665398418903351,-0.30900365114212036,1.0910226106643677,-0.13724158704280853,1.8081097602844238,-0.06053851544857025,-1.8696707487106323,0.06284390389919281,-0.9724951386451721,-1.419674038887024,-0.9330998659133911,-0.024578243494033813,-0.14328254759311676,-0.9699342250823975,0.6289367079734802,-0.27365222573280334,-1.4522658586502075,1.5240286588668823,-0.5472199320793152,-0.26262176036834717,0.7314063310623169,-0.5510378479957581,-1.578387975692749,0.7705734968185425,0.48407912254333496,-1.4121657609939575,2.3413424491882324,-0.7674737572669983
complex_24_A_b.png,0.37483060359954834,0.9885506629943848,-1.9947646856307983,-1.0583802461624146,0.28719931840896606,0.25531572103500366,1.4261283874511719,-0.73874431848526,1.8633149862289429,-1.1275304555892944,-1.558449625968933,0.3327261209487915,-0.7334608435630798,-0.4458065927028656,-0.5364412069320679,-0.9256342649459839,0.41720864176750183,0.13561002910137177,0.24431049823760986,-0.6813650131225586,-2.1121294498443604,1.574715256690979,-0.6281445026397705,-1.0310726165771484,0.9127689003944397,0.3155389130115509,-2.27107834815979,0.5265136957168579,0.2898876667022705,-1.2463560104370117,2.3849453926086426,-0.4560728669166565
simple_01_A_a.png,0.3778776526451111,0.592678964138031,-0.48439064621925354,-1.501594066619873,-1.0078517198562622,-0.0837305337190628,1.2000503540039062,-1.2982579469680786,-0.24211765825748444,-0.4732467830181122,0.45951318740844727,0.7886661291122437,-1.8035907745361328,-0.6086307764053345,-0.14229874312877655,-1.1539796590805054,-0.29598554968833923,1.0396080017089844,-0.35564911365509033,0.34577828645706177,0.8770580887794495,2.220111131668091,-0.731249213218689,-1.807212471961975,-0.9888054132461548,1.0211243629455566,-0.18311548233032227,1.307363748550415,-1.7923977375030518,-1.102626085281372,0.5269573330879211,0.034339383244514465
simple_01_A_b.png,0.9768049120903015,1.5994240045547485,-0.7633945941925049,-1.0505099296569824,-1.3476210832595825,-0.07337027043104172,1.1904399394989014,-1.7198752164840698,0.5023945569992065,-0.3218606114387512,0.33115604519844055,1.522241234779358,-1.72251296043396,-0.4024127423763275,0.147437185049057,-1.3859062194824219,-0.4267953634262085,1.644801139831543,-0.27247199416160583,0.9438391923904419,1.1791235208511353,3.150078773498535,-0.5145581364631653,-1.4653074741363525,-1.7097059488296509,2.671055316925049,0.6278295516967773,1.084749460220337,-1.6118718385696411,-1.3698493242263794,1.0705206394195557,0.2168889343738556
simple_01_A_c.png,0.11432626098394394,1.642385721206665,-1.1457589864730835,-1.554755687713623,-1.8720542192459106,-0.05945631116628647,1.9689613580703735,-0.665999174118042,-0.10296867787837982,-1.3509232997894287,-0.4594266712665558,0.8850801587104797,-1.4432142972946167,-0.8186450600624084,-0.06295674294233322,-0.5899111032485962,-0.9734886288642883,0.5824500322341919,-0.18913599848747253,-0.2706025242805481,0.38834714889526367,3.0403292179107666,0.5937250256538391,-1.1668572425842285,-1.2206796407699585,2.704686164855957,-0.4380195438861847,1.783233880996704,-2.867671251296997,-1.016457200050354,0.4333345890045166,-0.6918752789497375
simple_01_A_d.png,0.2218434065580368,1.9105840921401978,-1.230580449104309,-1.6025785207748413,-1.9500045776367188,-0.0030792353209108114,1.8853874206542969,-0.7687360048294067,-0.22202882170677185,-1.555473804473877,-0.7565031051635742,0.945864737033844,-1.3491898775100708,-0.9478487372398376,0.06343472748994827,-0.7180805802345276,-1.023232340812683,0.8307992219924927,-0.257608562707901,-0.3993608355522156,0.2926926910877228,3.411888360977173,0.5532340407371521,-1.0740466117858887,-1.3308161497116089,2.7030670642852783,-0.3247179388999939,1.9809911251068115,-2.8340888023376465,-0.9891177415847778,0.41447126865386963,-0.6105121970176697
simple_01_B_a.png,0.812283992767334,1.5258264541625977,-1.1978014707565308,-0.4182176887989044,-1.5675864219665527,-0.16544727981090546,-0.1531093865633011,-1.0510671138763428,-0.11406183987855911,-1.4060492515563965,0.3255569636821747,0.38237082958221436,-1.820147156715393,-0.24807362258434296,-0.625385046005249,-1.0908721685409546,-0.8768477439880371,1.1413005590438843,-0.36592820286750793,0.1351967304944992,0.49527689814567566,2.2321619987487793,-0.5027464032173157,-1.1488560438156128,-1.8266006708145142,1.2257804870605469,-0.05535434931516647,1.2790043354034424,-1.8568243980407715,-0.5688794851303101,0.9144108295440674,-0.024748196825385094
simple_01_B_b.png,0.7865366339683533,1.6749025583267212,-1.1329573392868042,-0.7271116375923157,-2.056068181991577,-0.10564959794282913,0.11583933234214783,-1.0756199359893799,-0.14670105278491974,-1.2881382703781128,-0.31461092829704285,0.5372517704963684,-1.808640956878662,-0.33065271377563477,-0.4830549657344818,-1.4179797172546387,-0.5086783170700073,1.4016749858856201,-0.9025282263755798,0.4577271640300751,0.704175591468811,2.311567783355713,-0.5771932005882263,-0.49256688356399536,-1.6446664333343506,1.052168369293213,0.47770798206329346,1.2885607481002808,-1.8398065567016602,-1.0362387895584106,0.5541123747825623,-0.025493063032627106
simple_01_B_c.png,0.841095507144928,1.6181453466415405,-1.1372507810592651,-0.7568131685256958,-2.080932378768921,-0.007545740343630314,0.044329721480607986,-1.0125007629394531,-0.14990073442459106,-1.134786605834961,-0.2868186831474304,0.49040329456329346,-1.7000880241394043,-0.3698520362377167,-0.40817731618881226,-1.5348262786865234,-0.6836221218109131,1.411551594734192,-1.0412144660949707,0.6301318407058716,0.7501144409179688,2.355156660079956,-0.5798208713531494,-0.7194064855575562,-1.7088522911071777,0.9554343819618225,0.3485378623008728,1.2477611303329468,-1.8773696422576904,-1.0042484998703003,0.6086998581886292,-0.12417030334472656
simple_01_B_d.png,0.7176474928855896,1.642669439315796,-1.277371883392334,-0.7332363128662109,-2.0959105491638184,-0.13924023509025574,0.25141918659210205,-1.1085160970687866,-0.021925317123532295,-1.224613070487976,-0.3093532919883728,0.5099586248397827,-1.8509016036987305,-0.4357367753982544,-0.24855118989944458,-1.4117563962936401,-0.48388469219207764,1.425266981124878,-0.8823303580284119,0.5693092346191406,0.678091824054718,2.383298397064209,-0.5399506092071533,-0.46694299578666687,-1.5212558507919312,1.3454660177230835,0.4764597713947296,1.2376919984817505,-1.9706509113311768,-1.292840838432312,0.5264717936515808,-0.14406728744506836
simple_02_A_a.png,0.01668291911482811,2.8418283462524414,-1.2943466901779175,-0.013109935447573662,-2.1713414192199707,0.8102616667747498,0.04257472604513168,-1.1577152013778687,-0.35604968667030334,-0.4327857196331024,0.47544237971305847,1.6388875246047974,-2.256441831588745,-0.21448417007923126,0.7597843408584595,-1.1249433755874634,-0.7041367888450623,1.0075459480285645,0.07548969984054565,1.7388404607772827,1.9875677824020386,0.9657626152038574,1.2032504081726074,-1.3503403663635254,-1.308718204498291,0.9066062569618225,0.37383732199668884,1.2907171249389648,-1.5161243677139282,-0.38599497079849243,0.8891821503639221,0.6083167195320129
simple_02_A_b.png,0.36334821581840515,2.8872296810150146,-1.3789180517196655,0.16760562360286713,-1.6121007204055786,0.7798618674278259,-0.2204277664422989,-1.262601375579834,-0.4011363089084625,-0.7184109687805176,0.5548858642578125,1.5191185474395752,-2.1119093894958496,-0.09580743312835693,0.5156946778297424,-0.8549370765686035,-0.36951011419296265,0.8554190397262573,0.23499979078769684,1.7753229141235352,1.9617431163787842,0.9307622909545898,0.6413519978523254,-1.5841726064682007,-0.9534239768981934,1.033142328262329,-0.1534879356622696,0.6147724390029907,-1.461789608001709,-0.24073703587055206,1.0399173498153687,0.6765488982200623
simple_02_A_c.png,0.970201849937439,2.189518451690674,-2.326504945755005,0.11332191526889801,-1.1217223405838013,0.31268420815467834,-0.8710994720458984,-0.4635426700115204,-0.34605199098587036,-0.46229541301727295,0.22611865401268005,0.7515979409217834,-1.226991057395935,-0.2896660566329956,0.5249702334403992,-0.5999653339385986,-0.8166118860244751,0.2652894854545593,-0.5549160838127136,1.1579258441925049,1.3762704133987427,0.5413957238197327,0.9810367822647095,-0.9341500997543335,-0.885275661945343,-0.270374059677124,1.1722561120986938,0.33922767639160156,-1.2269299030303955,-0.01995796151459217,1.1277953386306763,0.35131949186325073
simple_02_A_d.png,0.9731199145317078,2.255270004272461,-2.3243823051452637,-0.07651016861200333,-1.0939267873764038,0.4933911859989166,-0.8298290967941284,-0.6581509709358215,-0.42181864380836487,-0.46084585785865784,0.27819105982780457,1.0430395603179932,-1.3279541730880737,-0.47226113080978394,0.7714457511901855,-0.6811424493789673,-0.5922348499298096,0.3628844618797302,-0.24375826120376587,1.266194224357605,1.344163179397583,0.49771568179130554,1.0487725734710693,-0.8437658548355103,-0.9868478178977966,0.04066881909966469,1.1239198446273804,0.3924078643321991,-1.435937762260437,-0.10703127831220627,1.0112941265106201,0.44518470764160156
simple_02_B_a.png,0.4499678313732147,2.2898430824279785,-1.8946348428726196,0.13066129386425018,-0.957435131072998,0.35789722204208374,-0.533830463886261,-0.48491883277893066,-0.4750399887561798,-0.8812866806983948,-0.1527877002954483,0.8716418743133545,-1.294482946395874,-0.7689409852027893,0.7013871669769287,-0.30115100741386414,-0.7559120655059814,0.18636567890644073,-0.055059149861335754,1.0347278118133545,0.9367989897727966,0.9826717376708984,0.7585499882698059,-0.7269838452339172,-0.5602132081985474,0.0034822458401322365,0.7197751998901367,0.36474454402923584,-1.0646705627441406,0.004218245390802622,0.9108821749687195,0.5963577032089233
simple_02_B_b.png,0.4467710852622986,2.6059558391571045,-2.2684028148651123,0.24652256071567535,-1.0997356176376343,0.641101598739624,-0.5423548817634583,-0.6331714987754822,-0.40947481989860535,-0.7612693905830383,0.001597828813828528,1.1950565576553345,-1.4640783071517944,-0.5750455856323242,0.8972777128219604,-0.39805838465690613,-0.5102553367614746,0.3596342206001282,-0.12438233941793442,1.4720163345336914,1.3089323043823242,0.9549506902694702,1.1398284435272217,-0.5041697025299072,-0.6679022312164307,0.09170926362276077,0.5431070327758789,0.5583842396736145,-1.2467706203460693,0.028799381107091904,1.1549015045166016,0.3223583996295929
simple_02_B_c.png,0.5506786108016968,2.588923454284668,-2.217027187347412,0.3797120153903961,-1.2494069337844849,0.5258084535598755,-0.8505272269248962,-0.47558683156967163,-0.3448164463043213,-0.8125874400138855,0.012412330135703087,1.0360640287399292,-1.4116967916488647,-0.454393208026886,0.9322868585586548,-0.3997372090816498,-0.4013109803199768,0.3846741020679474,-0.05287206545472145,1.3796056509017944,1.3328731060028076,0.6832556128501892,1.2001242637634277,-0.677731990814209,-0.7206760048866272,-0.03068854846060276,0.7331601977348328,0.5488786101341248,-1.1360492706298828,0.0780363529920578,1.2907135486602783,0.26638999581336975
simple_02_B_d.png,0.6107005476951599,2.5864508152008057,-2.2179272174835205,0.3798563480377197,-1.3428809642791748,0.20961742103099823,-0.618502140045166,-0.19922396540641785,-0.3713478147983551,-0.8184967637062073,0.023602314293384552,0.6530973315238953,-1.6505216360092163,-0.9203475713729858,0.7175295352935791,-0.5145307183265686,-0.9173869490623474,0.33067891001701355,-0.23502381145954132,1.1049591302871704,1.211595892906189,1.0884687900543213,1.180224061012268,-0.47721755504608154,-0.16124418377876282,-0.04631010815501213,0.6565691828727722,0.4691423177719116,-1.1124852895736694,0.000514191051479429,1.4382435083389282,0.10308800637722015
simple_03_A_a.png,-0.40757253766059875,2.4929864406585693,0.259397029876709,-1.3136255741119385,-2.8779802322387695,-0.7511159181594849,0.9011650681495667,-1.1810170412063599,-0.32359880208969116,-1.3831392526626587,0.18376120924949646,1.112618327140808,-3.298358678817749,1.1289737224578857,-0.3781448304653168,-0.533969521522522,-0.2980334162712097,0.4973939061164856,0.6720919013023376,0.5382267832756042,0.8184438347816467,0.9997719526290894,-0.7966533899307251,-1.457094669342041,-0.3960372805595398,1.6752711534500122,-1.7383495569229126,1.011117696762085,-0.7361953258514404,-1.8669878244400024,1.6111129522323608,-0.6195573806762695
simple_03_A_b.png,-0.13755075633525848,2.270040512084961,-0.35626286268234253,-0.3171501159667969,-0.9311899542808533,-0.9685349464416504,0.5711925029754639,-1.3805917501449585,-0.38332369923591614,-0.9230242967605591,0.02418161742389202,0.8473646640777588,-2.7542881965637207,0.7929747104644775,-0.3614068031311035,-0.6380735635757446,-0.22243663668632507,0.5631794929504395,0.44241225719451904,-0.049544766545295715,0.48512691259384155,0.6919299960136414,0.1790320873260498,-1.3951681852340698,-0.5972176194190979,1.1300820112228394,-0.6633545756340027,0.685880184173584,-0.975923478603363,-1.2702993154525757,1.4224739074707031,-0.6036524772644043
simple_03_A_c.png,-0.1438191831111908,1.5945680141448975,-0.7492705583572388,0.011038820259273052,-0.29451099038124084,-1.2047083377838135,0.7943557500839233,-0.5925022959709167,0.45734313130378723,-0.6675435304641724,0.06799688935279846,0.9430274367332458,-2.2391915321350098,-0.9451820254325867,0.22295846045017242,-0.8005895614624023,-0.1785888671875,-0.3382614850997925,-0.6004509925842285,-0.36108794808387756,-0.1326199769973755,1.1603080034255981,0.11293354630470276,-0.2911732792854309,-0.33147671818733215,-0.26803869009017944,0.3115665018558502,0.559118390083313,-0.7143328189849854,-0.42865484952926636,0.153324156999588,-0.3581636846065521
simple_03_A_d.png,-0.31662771105766296,1.6043545007705688,-0.6953770518302917,0.04359768331050873,-0.289126455783844,-1.3070085048675537,0.8052850365638733,-0.6782885789871216,0.29397961497306824,-0.6256194710731506,0.033760152757167816,0.9866694808006287,-2.352107524871826,-0.8880588412284851,0.22040852904319763,-0.638526976108551,-0.18518051505088806,-0.29775166511535645,-0.5192568302154541,-0.44821077585220337,-0.2006726711988449,1.115222692489624,0.06204184889793396,-0.22934742271900177,-0.15287050604820251,-0.3286524713039398,0.26329144835472107,0.6744971871376038,-0.6469272971153259,-0.4213695228099823,0.2134632170200348,-0.2944622337818146
simple_03_B_a.png,-0.3029375374317169,1.9429569244384766,-0.30197638273239136,-0.767011821269989,-0.7303891777992249,-0.9779824018478394,1.2780932188034058,-0.5182937979698181,0.13415372371673584,-0.9803345799446106,-0.9026602506637573,0.447125643491745,-1.8827319145202637,-0.8556726574897766,-0.2290733903646469,-0.7196472883224487,-0.5942720174789429,0.0972457304596901,-0.3855985403060913,0.09209885448217392,-0.10548919439315796,2.1492531299591064,-0.1113569363951683,-0.32137414813041687,-0.2231532335281372,0.52427077293396,0.345586895942688,0.7886529564857483,-0.8407995104789734,-0.5014732480049133,0.47021758556365967,0.5284507274627686
simple_03_B_b.png,-0.45239701867103577,1.9924477338790894,-0.3262827694416046,-0.2894092798233032,-0.8631531000137329,-1.1768693923950195,1.226680874824524,-0.9147947430610657,0.12729763984680176,-0.9000517725944519,-0.559741199016571,1.0429447889328003,-1.9132424592971802,-0.753944993019104,-0.06358219683170319,-0.41361337900161743,-0.381509393453598,-0.010830855928361416,-0.1696348637342453,-0.18315105140209198,-0.16305723786354065,2.0069475173950195,-0.10114831477403641,-0.5443741083145142,-0.05689602345228195,0.1586446315050125,0.2578828036785126,0.7157118320465088,-0.5390876531600952,-0.5871915221214294,0.7054945826530457,0.27280205488204956
simple_03_B_c.png,-0.36788907647132874,1.966097354888916,-0.34907498955726624,-0.3198308050632477,-0.8616739511489868,-1.1562105417251587,1.1177836656570435,-0.714649498462677,0.18680083751678467,-0.7375817894935608,-0.6018967628479004,0.8886692523956299,-2.0018904209136963,-0.7892577648162842,-0.017632247880101204,-0.4289719760417938,-0.6343985795974731,0.04409273713827133,-0.3397509455680847,-0.24266137182712555,-0.08249478042125702,1.9663854837417603,-0.05887121334671974,-0.47447192668914795,0.02945774421095848,0.20670050382614136,0.35671794414520264,0.7701541781425476,-0.6762051582336426,-0.6445903182029724,0.5915195941925049,0.09125354886054993
simple_03_B_d.png,-0.523960292339325,1.8611831665039062,-0.44973239302635193,-0.3274667263031006,-0.6974444389343262,-1.2045716047286987,1.217990517616272,-0.6641314625740051,0.22907790541648865,-0.7308081388473511,-0.6529577970504761,0.832543134689331,-1.8884587287902832,-0.7771567106246948,0.06639683991670609,-0.30787360668182373,-0.527468204498291,0.03276252746582031,-0.3517397940158844,-0.291902631521225,-0.017871225252747536,2.049118995666504,-0.004303102381527424,-0.4119987487792969,0.013678821735084057,0.26296499371528625,0.13840508460998535,0.8568048477172852,-0.6803399324417114,-0.7620720267295837,0.6052442193031311,0.051471445709466934
simple_04_A_a.png,0.11697915941476822,1.1573941707611084,-0.7916151285171509,-1.0461674928665161,-0.8859497904777527,-0.00954538956284523,0.28646743297576904,-1.1265851259231567,0.1251891851425171,0.20848096907138824,-1.0883671045303345,2.33860445022583,-2.7480247020721436,0.4546298682689667,-1.6775788068771362,-0.6990646719932556,-1.6502554416656494,0.6501368880271912,1.1417691707611084,0.8197380304336548,0.44057977199554443,1.504559874534607,-0.666072428226471,-1.5521334409713745,-1.2812508344650269,0.7184256315231323,-0.5853862762451172,1.749477505683899,-0.14599600434303284,0.8936269879341125,-0.008256642147898674,-0.3176341950893402
simple_04_A_b.png,0.3793978989124298,1.949855923652649,-0.23125819861888885,-0.5050817728042603,-1.1738882064819336,-0.5453659892082214,0.3008154630661011,-1.2858175039291382,-0.1336599737405777,0.3380342721939087,-0.8968347907066345,2.4278781414031982,-2.659395217895508,0.5280047655105591,-1.423338770866394,-0.4772487282752991,-2.07204008102417,0.7710691690444946,1.7389756441116333,1.2107126712799072,-0.012788116000592709,1.832849383354187,-1.3767032623291016,-1.2958996295928955,-1.3638767004013062,1.2019325494766235,-1.2394460439682007,1.213365912437439,-0.3944474160671234,0.38501930236816406,0.027548303827643394,-0.1549488604068756
simple_04_A_c.png,0.744019091129303,1.1249104738235474,-1.5708075761795044,0.2830178141593933,-0.5363943576812744,-0.8723189234733582,-0.23045006394386292,-1.9268583059310913,0.2154093235731125,-1.1027839183807373,-0.3573055565357208,1.4995696544647217,-1.9768645763397217,0.2458266317844391,-0.6198189854621887,-0.5149304866790771,-1.1937482357025146,0.4363802373409271,0.660524308681488,0.9525924921035767,0.17473477125167847,1.1934963464736938,-0.18209630250930786,-0.9742728471755981,-1.5136480331420898,-0.3315373361110687,-0.7012028098106384,0.25282174348831177,-1.3105387687683105,-0.05089437961578369,-0.34578728675842285,0.10045628994703293
simple_04_A_d.png,0.5831716060638428,1.2322542667388916,-1.5546457767486572,0.2637568712234497,-0.4856466054916382,-0.8464046120643616,-0.24149325489997864,-2.022822141647339,0.06492023169994354,-1.065045714378357,-0.37678346037864685,1.4709450006484985,-1.9891382455825806,0.15426023304462433,-0.5943945050239563,-0.5217350125312805,-1.2227115631103516,0.3570246696472168,0.68717360496521,0.9044138789176941,0.2068183571100235,1.2341184616088867,-0.18732985854148865,-1.0078489780426025,-1.5615758895874023,-0.2857406735420227,-0.7967645525932312,0.29819414019584656,-1.180895209312439,-0.037407036870718,-0.3979852497577667,0.20946577191352844
simple_04_B_a.png,-0.5906003713607788,0.9566423892974854,-0.8805167078971863,0.22286680340766907,-0.18592949211597443,-0.9765404462814331,0.3879983425140381,-1.6753900051116943,1.1192433834075928,-1.1523407697677612,-0.8367034792900085,1.1567853689193726,-1.9783601760864258,0.3629288077354431,-1.0255193710327148,-0.20941832661628723,-1.9091830253601074,-0.15978235006332397,0.6374154090881348,0.5793783068656921,0.2541445791721344,1.1059015989303589,-0.10407997667789459,-1.4159531593322754,-1.3738067150115967,0.2774128317832947,-1.2609503269195557,0.3448857069015503,-1.039005160331726,-0.5217863321304321,-0.08743679523468018,0.05087379366159439
simple_04_B_b.png,-0.5295568704605103,1.1000064611434937,-0.9291836619377136,-0.10047555714845657,-0.4735577404499054,-1.0528931617736816,0.34534573554992676,-1.581447720527649,1.03640615940094,-1.4331990480422974,-0.9651918411254883,1.515021562576294,-2.1770031452178955,0.3347111642360687,-1.1418622732162476,-0.15205438435077667,-1.9542616605758667,0.015817606821656227,0.9009423851966858,0.6625685691833496,0.04225403815507889,1.3093130588531494,-0.44803962111473083,-1.3488034009933472,-1.0800999402999878,0.07138291001319885,-1.429535150527954,0.39792579412460327,-1.0925397872924805,-0.514441728591919,0.3561478853225708,-0.09117955714464188
simple_04_B_c.png,-0.048367585986852646,0.9641132950782776,-0.9678357839584351,0.09960892796516418,-0.0019005981739610434,-1.145084261894226,0.26288431882858276,-1.0787289142608643,1.5590656995773315,-1.115763783454895,-0.6924824714660645,1.3406659364700317,-2.0685172080993652,0.09447653591632843,-1.1615883111953735,-0.4552997052669525,-2.114807605743408,-0.025530777871608734,0.172978937625885,0.423157662153244,0.22984613478183746,0.9771915674209595,-0.2189110815525055,-1.1264045238494873,-0.8008036613464355,-0.11940121650695801,-0.983437716960907,0.8515644073486328,-0.7757813930511475,-0.2464950531721115,-0.22447775304317474,0.23507514595985413
simple_04_B_d.png,-0.5808312296867371,1.0351132154464722,-1.0664151906967163,-0.05623406916856766,-0.22376365959644318,-1.0687614679336548,0.3349902927875519,-1.5989253520965576,1.055540680885315,-1.243580937385559,-0.8782210946083069,1.5085728168487549,-2.13763689994812,0.24693645536899567,-0.993768572807312,-0.22572843730449677,-1.92899489402771,-0.08008439093828201,0.7192732095718384,0.8137608766555786,0.2989993095397949,1.1629709005355835,-0.2892863154411316,-1.3857860565185547,-1.169215440750122,0.17988115549087524,-1.3807960748672485,0.6680989265441895,-1.032489538192749,-0.4932568669319153,0.0844629630446434,0.13440924882888794
simple_05_A_a.png,1.0026839971542358,2.3519558906555176,-1.0509639978408813,-0.591185450553894,-1.0284559726715088,1.102379322052002,0.802280843257904,-1.1108757257461548,0.9603641629219055,0.2936519384384155,0.5254450440406799,2.108186721801758,-1.6296619176864624,0.23142439126968384,0.9610832333564758,-0.5874584913253784,-0.03438754007220268,0.730888307094574,1.2504230737686157,1.5139461755752563,1.8646036386489868,0.5561964511871338,0.8009217977523804,-1.5926997661590576,-2.1177594661712646,1.6686081886291504,0.04108138754963875,0.8163763880729675,-1.8150923252105713,-0.3279917240142822,1.5266213417053223,-0.2857794463634491
simple_05_A_b.png,0.8200728893280029,1.9095486402511597,-1.087726354598999,-0.607793927192688,-0.6826497316360474,0.9323378801345825,0.869351863861084,-1.265550136566162,1.2382194995880127,0.4482237696647644,0.6741752028465271,1.7952669858932495,-1.281643271446228,-0.030529139563441277,0.9089205265045166,-0.3542719781398773,0.04255394637584686,0.7405980825424194,1.1581026315689087,1.8480788469314575,1.9505095481872559,0.5962677001953125,1.0231153964996338,-1.2097125053405762,-1.8473260402679443,1.6939592361450195,0.20832063257694244,0.6878183484077454,-1.7476637363433838,-0.4828130900859833,1.2672792673110962,-0.14814458787441254
simple_05_A_c.png,1.3540775775909424,2.244183301925659,-1.3117033243179321,0.30237457156181335,-0.8540380001068115,0.8806890249252319,-0.04132669046521187,-0.7388396859169006,0.5734490752220154,-0.26196908950805664,0.08933675289154053,1.4270644187927246,-1.0882495641708374,-0.101806640625,0.7115503549575806,-0.23929616808891296,0.1703004688024521,0.4766891896724701,0.547099769115448,1.107263445854187,0.8906987905502319,0.010936170816421509,1.0333999395370483,-0.8152452111244202,-1.6940174102783203,1.0951179265975952,0.8179582953453064,0.6351154446601868,-1.920628309249878,-0.09114963561296463,1.353529453277588,-1.1593506336212158
simple_05_A_d.png,1.4457592964172363,2.1651570796966553,-1.4161944389343262,0.1479497104883194,-0.77557373046875,0.8934566974639893,0.09543727338314056,-0.7932353019714355,0.6539420485496521,-0.06938360631465912,0.1752457618713379,1.4208875894546509,-0.9503422975540161,-0.05302739515900612,0.7960878610610962,-0.36048150062561035,0.28906381130218506,0.5008823871612549,0.5481482148170471,1.1908655166625977,0.925298810005188,-0.10438422858715057,1.0943615436553955,-0.782464325428009,-1.8262414932250977,1.1670957803726196,1.0339089632034302,0.6331601738929749,-1.9065849781036377,0.09649774432182312,1.3033803701400757,-1.119086742401123
simple_05_B_a.png,0.9008861184120178,1.9371410608291626,-0.998633623123169,0.24091173708438873,-0.9855623245239258,0.9340708255767822,1.0475053787231445,-0.7906652688980103,1.1580793857574463,0.26751816272735596,0.3478918969631195,2.2812092304229736,-0.8748206496238708,-0.36798781156539917,1.285341739654541,-0.20385955274105072,0.5007189512252808,0.4587418735027313,0.5777110457420349,1.3627700805664062,0.8464753031730652,0.20784084498882294,0.67195725440979,-0.824251115322113,-1.142669439315796,1.4500535726547241,-0.07538415491580963,0.22968314588069916,-1.8284374475479126,-0.6940017938613892,1.4482765197753906,-0.8051483035087585
simple_05_B_b.png,0.9347065687179565,2.0866434574127197,-0.9496194124221802,0.416770339012146,-1.1441341638565063,0.8810838460922241,0.8393089771270752,-0.658748984336853,1.1824238300323486,0.16341806948184967,0.2668999135494232,2.270014524459839,-0.9295440912246704,-0.1906406581401825,1.3383162021636963,-0.06907027214765549,0.46033230423927307,0.4178520143032074,0.5795494914054871,1.5471580028533936,0.9279245734214783,0.23464295268058777,0.6655883193016052,-0.7850981950759888,-1.0596369504928589,1.5618724822998047,0.0714019164443016,0.44867563247680664,-1.9213101863861084,-0.6559466123580933,1.3742574453353882,-0.7533432245254517
simple_05_B_c.png,0.9125806093215942,2.1659932136535645,-0.9782469868659973,0.4387272298336029,-1.178045392036438,0.9349038600921631,0.849597156047821,-0.6121442317962646,1.1122225522994995,0.10576420277357101,0.1439237743616104,2.181579351425171,-0.9537911415100098,-0.23905320465564728,1.2285970449447632,-0.12028913199901581,0.3347615599632263,0.5563122034072876,0.43467646837234497,1.4429270029067993,0.9371856451034546,0.1619555652141571,0.7008437514305115,-0.774105966091156,-1.0844955444335938,1.4241563081741333,0.0021773132029920816,0.43959325551986694,-1.90364408493042,-0.5552207231521606,1.4827903509140015,-0.7894334197044373
simple_05_B_d.png,0.8753345608711243,2.0841064453125,-1.0698567628860474,0.3656296730041504,-0.9553086757659912,0.8861255645751953,0.9262945652008057,-0.5569655895233154,1.2017053365707397,0.1553565412759781,0.44264036417007446,2.10302472114563,-0.89305180311203,-0.34454545378685,1.2059413194656372,-0.1560848355293274,0.26952099800109863,0.5433402061462402,0.4705895483493805,1.4360874891281128,0.9373655915260315,0.1901950091123581,0.777642011642456,-0.7592365741729736,-1.0194389820098877,1.3835844993591309,0.012842820957303047,0.30185508728027344,-1.8444833755493164,-0.5885897874832153,1.3211363554000854,-0.699715256690979
simple_06_A_a.png,0.03923309966921806,0.4604606032371521,-0.2024797946214676,-1.1894774436950684,-0.14903396368026733,-0.6240624189376831,1.1594046354293823,-1.2004117965698242,0.37004855275154114,-0.6317912936210632,0.18051862716674805,1.0826810598373413,-1.9118765592575073,-0.046944279223680496,0.13360729813575745,-0.5920826196670532,-0.2487010359764099,0.7155557870864868,-0.27958884835243225,0.5113820433616638,0.5015707612037659,1.850180983543396,-0.16433383524417877,-1.533498764038086,-0.32587096095085144,0.5060689449310303,-0.0739293023943901,0.6790221929550171,-1.9721497297286987,-1.1583811044692993,0.43171095848083496,-0.14431945979595184
simple_06_A_b.png,-0.14632964134216309,1.057090401649475,-0.44185328483581543,-0.5638107061386108,-0.4156346619129181,-0.39038559794425964,1.1069209575653076,-1.3889141082763672,0.5373291969299316,-0.39878973364830017,0.4180169403553009,1.2278786897659302,-2.1472525596618652,-0.47366443276405334,0.5215003490447998,-0.8727704882621765,-0.027264276519417763,0.43832147121429443,-0.33285850286483765,0.7246267795562744,0.7458380460739136,1.9304511547088623,-0.47947272658348083,-0.5330721735954285,-0.43463292717933655,0.9833088517189026,-0.4012657105922699,1.2793121337890625,-2.0274412631988525,-1.8121495246887207,0.48440101742744446,-0.4899173974990845
simple_06_A_c.png,-0.08098218590021133,2.2416348457336426,-1.3005815744400024,-0.37388163805007935,-2.1618430614471436,-0.35351458191871643,0.7179887890815735,-1.0146719217300415,0.1274355947971344,-1.0815894603729248,-0.8984915614128113,1.863211989402771,-1.7577495574951172,-0.9864974021911621,0.15481871366500854,-0.31799477338790894,-0.6835105419158936,0.7944430112838745,-0.7723692059516907,0.038659509271383286,0.42307135462760925,2.613940954208374,-0.3002205789089203,0.11429987102746964,-0.6724349856376648,1.6374415159225464,-0.06258457899093628,1.7133638858795166,-2.7916955947875977,-1.4245195388793945,0.7303516268730164,-0.31953126192092896
simple_06_A_d.png,-0.025820530951023102,2.334132671356201,-1.1130222082138062,-0.356092631816864,-2.3355960845947266,-0.44124504923820496,0.6265177130699158,-0.894379734992981,0.1593896746635437,-1.3029547929763794,-1.0027587413787842,1.6893973350524902,-1.9682272672653198,-0.9973956942558289,0.016635779291391373,-0.5142678022384644,-0.7417814135551453,0.9389510154724121,-0.8764155507087708,0.07135617733001709,0.44684186577796936,2.6045658588409424,-0.34544527530670166,0.06235237047076225,-0.8179201483726501,1.7282993793487549,0.04671473428606987,1.9717062711715698,-2.642326831817627,-1.3096110820770264,0.6538809537887573,-0.14592492580413818
simple_06_B_a.png,0.41329097747802734,2.0483012199401855,-1.2625932693481445,-0.2595195472240448,-1.6448163986206055,-0.14243029057979584,0.36302533745765686,-1.003069519996643,0.2552703022956848,-1.069880485534668,-0.2675790786743164,1.8798984289169312,-1.6484512090682983,-0.8298694491386414,-0.00034176759072579443,-0.3808755576610565,-0.44919997453689575,1.016729474067688,-0.502385139465332,0.3584015369415283,0.18631517887115479,2.254498243331909,-0.40050724148750305,-0.3869543969631195,-0.8747355937957764,0.8168718218803406,0.26094648241996765,1.076354742050171,-2.844701051712036,-1.0554102659225464,0.414646178483963,-0.2535150945186615
simple_06_B_b.png,0.48252859711647034,1.8977395296096802,-1.2371528148651123,-0.3905404806137085,-1.668201208114624,-0.24294596910476685,0.7999817132949829,-0.9406155347824097,0.2242310345172882,-0.9199109077453613,-0.2877848446369171,1.8871808052062988,-1.9773138761520386,-0.8745217323303223,0.074310302734375,-0.4389503002166748,-0.6671839952468872,1.103304386138916,-0.5597856640815735,0.2853204309940338,0.161720871925354,2.6132657527923584,-0.08446595072746277,-0.42650195956230164,-0.8194292783737183,1.23759126663208,0.06798458844423294,1.1362910270690918,-3.3716602325439453,-1.337936282157898,0.8657755851745605,-0.7736542820930481
simple_06_B_c.png,0.5038675665855408,2.039245128631592,-1.3246877193450928,-0.21702995896339417,-1.7276273965835571,-0.27184030413627625,0.5446171164512634,-0.8917587399482727,0.14381268620491028,-1.1281263828277588,-0.36508509516716003,1.7311359643936157,-1.894694447517395,-0.5513413548469543,-0.24721913039684296,-0.4125680923461914,-0.6834778189659119,1.0267611742019653,-0.5547707080841064,0.02518538199365139,0.1454716920852661,2.4071826934814453,0.039994850754737854,-0.3767872154712677,-0.8979921340942383,1.0402206182479858,0.06995809078216553,1.0685791969299316,-3.117781639099121,-1.1231809854507446,0.8019116520881653,-0.628756582736969
simple_06_B_d.png,0.5390480756759644,1.9218670129776,-1.1897668838500977,-0.163037970662117,-1.3883873224258423,-0.29116585850715637,0.26092830300331116,-1.105389952659607,0.29793861508369446,-1.109488606452942,-0.340432733297348,1.8642406463623047,-1.7064177989959717,-0.7643775343894958,-0.2099001109600067,-0.24537242949008942,-0.4980420768260956,0.91875821352005,-0.5944899320602417,0.4094538688659668,0.14203786849975586,2.169646978378296,-0.48772215843200684,-0.36005541682243347,-1.0321053266525269,0.5727246403694153,0.17338865995407104,0.9697985053062439,-2.8131325244903564,-1.1170539855957031,0.416836142539978,-0.21111708879470825
simple_07_A_a.png,-0.8095408082008362,0.7961352467536926,-0.6697657108306885,-1.4057843685150146,-0.9100884795188904,-0.17684103548526764,1.7573518753051758,-0.6176822781562805,0.3044210374355316,-0.2964175343513489,0.9253660440444946,-0.278944194316864,-1.5356230735778809,0.07417702674865723,-0.8627641201019287,-0.1284066140651703,0.14494630694389343,-0.880245566368103,0.41525161266326904,0.2241377830505371,-0.2884642481803894,0.32403436303138733,1.1288141012191772,-1.1866495609283447,0.07985001057386398,0.36000704765319824,-1.1329156160354614,0.11844862252473831,-0.25906386971473694,-0.8991186618804932,0.589867115020752,-0.2676022946834564
simple_07_A_b.png,-1.2182389497756958,0.827063262462616,-0.5686037540435791,-1.5746288299560547,-1.3227746486663818,0.018929719924926758,1.8502211570739746,-0.803031325340271,-0.2552720308303833,-0.31644806265830994,0.2022499293088913,-0.9555872082710266,-1.1531767845153809,0.19540666043758392,-0.39339134097099304,-0.2322017401456833,-0.3104274570941925,-0.4775673449039459,0.7019181251525879,0.2637676000595093,-0.3893090784549713,0.9396833777427673,1.0934780836105347,-1.6284834146499634,0.15587978065013885,1.2923917770385742,-1.0937474966049194,0.38157498836517334,-0.07494426518678665,-1.5192315578460693,0.5949225425720215,-0.2616705298423767
simple_07_A_c.png,-1.1893593072891235,-0.06246422603726387,-0.526488721370697,-2.132481336593628,-1.538812279701233,-0.45450714230537415,2.550131320953369,-0.32427895069122314,-0.3015388250350952,0.29751893877983093,1.2233620882034302,-0.10518673807382584,-1.645882487297058,-0.3358103036880493,-0.027740463614463806,0.3475893437862396,-0.29048463702201843,-1.9012420177459717,0.7298505306243896,0.047615956515073776,0.1485184133052826,0.5326464772224426,1.399967908859253,-1.271880030632019,-0.13634547591209412,0.2268235981464386,-1.6048320531845093,0.14972800016403198,0.08277148753404617,-1.4320566654205322,0.3564041256904602,-0.3550150990486145
simple_07_A_d.png,-1.288016676902771,0.032335832715034485,-0.42821958661079407,-1.9415154457092285,-1.5650593042373657,-0.36637747287750244,2.520507335662842,-0.356491357088089,-0.29283344745635986,0.206993967294693,1.0041990280151367,-0.18857304751873016,-1.5677069425582886,-0.3268721103668213,-0.09997255355119705,0.3600204885005951,-0.2992851436138153,-1.7188423871994019,0.6923810839653015,-0.01226834487169981,0.15358811616897583,0.5405812859535217,1.3301682472229004,-1.180078148841858,-0.16606593132019043,0.27972814440727234,-1.5213382244110107,0.22775933146476746,0.11667876690626144,-1.408900499343872,0.3873704671859741,-0.2894398868083954
simple_07_B_a.png,-0.28301671147346497,1.7622593641281128,-0.7266089916229248,0.2798091173171997,-0.2605533003807068,-1.2435097694396973,0.19681662321090698,-0.17738093435764313,1.0275580883026123,-0.32905149459838867,-1.2246432304382324,1.1827964782714844,-0.9382861256599426,-0.0965762734413147,-0.5955682992935181,0.05791310593485832,-0.8345047235488892,-0.4080776870250702,0.2936432659626007,0.33887726068496704,-0.15323518216609955,0.9577128887176514,0.5433048009872437,-0.8109704256057739,-1.0219842195510864,0.41730979084968567,-0.8628864884376526,0.33821964263916016,-0.07959771156311035,-0.6962633728981018,-0.2503476142883301,0.058166928589344025
simple_07_B_b.png,-0.05083023011684418,1.84763765335083,-0.8538892269134521,0.15567713975906372,-0.7378204464912415,-1.2792882919311523,0.07704862207174301,-0.5987471342086792,0.7151824235916138,-0.4334091544151306,-1.0851469039916992,1.114161491394043,-1.0781668424606323,0.16496455669403076,-0.19258548319339752,-0.45385852456092834,-1.0908491611480713,-0.06932222098112106,0.5181337594985962,0.07468488067388535,-0.41292449831962585,0.8019532561302185,0.6001846194267273,-1.12602961063385,-0.9761725664138794,0.31201082468032837,-0.5567126870155334,0.3397639989852905,-0.16651952266693115,-0.47373250126838684,0.009954635985195637,0.055491626262664795
simple_07_B_c.png,-0.42078566551208496,1.7842082977294922,-0.6832038760185242,0.21084873378276825,-0.5817779898643494,-1.106475830078125,0.2757244110107422,-0.6630600690841675,0.9345173835754395,-0.24727483093738556,-1.0792101621627808,1.1391453742980957,-1.0698233842849731,-0.00985269621014595,-0.1162784993648529,-0.47682955861091614,-1.0068894624710083,-0.2249603420495987,0.6538776755332947,0.3772619664669037,-0.057352494448423386,0.9483886957168579,0.7362385392189026,-1.0936559438705444,-1.169631838798523,0.369251549243927,-0.7244965434074402,0.5044174194335938,-0.07514157146215439,-0.8490851521492004,-0.31374362111091614,0.10104431211948395
simple_07_B_d.png,-0.2398795634508133,1.727514624595642,-0.8296323418617249,0.06062968447804451,-0.5824725031852722,-1.209487795829773,0.44679945707321167,-0.774807870388031,0.9190883040428162,-0.25666627287864685,-1.0029220581054688,1.2752166986465454,-1.080114722251892,-0.037484027445316315,0.07641151547431946,-0.3945627808570862,-1.0439670085906982,-0.13775764405727386,0.5931134223937988,0.33440008759498596,-0.27344024181365967,1.0509217977523804,0.767991840839386,-0.9778797626495361,-1.2534176111221313,0.45160508155822754,-0.6172603964805603,0.34559813141822815,-0.3195923864841461,-0.8508098721504211,-0.21257907152175903,0.26103895902633667
simple_08_A_a.png,0.40347230434417725,0.6481585502624512,-0.8618234992027283,-0.3524957001209259,-1.3942911624908447,-0.0047991625033319,0.7057968378067017,-1.280014157295227,0.19355744123458862,0.12734918296337128,-0.1408345103263855,0.7582048773765564,-2.450402021408081,0.5835689306259155,0.05571227893233299,-0.907402515411377,-1.1908501386642456,0.94535231590271,-0.46657827496528625,1.0928690433502197,0.10005589574575424,1.6954214572906494,-0.6795291304588318,-0.8339739441871643,-0.557521402835846,0.7526924014091492,-0.05173315107822418,1.3361552953720093,-1.3783451318740845,-0.6831043362617493,0.18860308825969696,-0.040233172476291656
simple_08_A_b.png,0.43298760056495667,1.3305805921554565,-0.8188635110855103,-0.2660765051841736,-1.070610523223877,0.10256436467170715,0.6133255958557129,-1.447074294090271,-0.03736105188727379,0.026726434007287025,-0.25325390696525574,0.8238112330436707,-1.9095344543457031,-0.09108826518058777,-0.27657198905944824,-1.2290691137313843,-0.6988704204559326,0.7567101120948792,-0.8384341597557068,1.1883924007415771,0.6654922962188721,1.5807932615280151,-0.4246617257595062,-1.199822187423706,-0.7563199400901794,0.7257678508758545,-0.0732240155339241,1.0797008275985718,-1.3546547889709473,0.04713565483689308,0.14497119188308716,-0.29902490973472595
simple_08_A_c.png,0.2488744854927063,2.511676549911499,-0.3196508586406708,0.1253613978624344,-1.419350266456604,-0.10756462812423706,0.03371448814868927,-0.13131703436374664,-0.4882316589355469,-0.8231692910194397,-1.2724312543869019,0.8842731714248657,-1.9041428565979004,-0.767129123210907,-0.18583355844020844,-0.27780213952064514,-0.8844453692436218,0.24560000002384186,-0.3333509862422943,0.4488125145435333,0.2505384385585785,0.8501589298248291,-0.4605933725833893,-0.13231506943702698,-0.6311442255973816,0.23526932299137115,-0.5242864489555359,1.0739072561264038,-1.2364768981933594,-0.8220065832138062,0.7363279461860657,-0.035217415541410446
simple_08_A_d.png,0.36959633231163025,2.402562141418457,-0.5174530744552612,0.20540045201778412,-1.0673322677612305,-0.1320866048336029,0.023502245545387268,-0.22536708414554596,-0.4921379089355469,-0.6126238703727722,-1.1112054586410522,0.9272395372390747,-1.8590195178985596,-0.9475168585777283,-0.26580968499183655,-0.3912162184715271,-1.000217080116272,0.2654590308666229,-0.5006871223449707,0.5572449564933777,0.3639223277568817,0.9125555753707886,-0.4641008675098419,-0.056570347398519516,-0.6855653524398804,0.14268836379051208,-0.4131394922733307,1.0271949768066406,-1.3379247188568115,-0.7038095593452454,0.5090181827545166,0.05000673606991768
simple_08_B_a.png,0.2593832314014435,2.092085838317871,-0.5975314378738403,0.33983781933784485,-1.1740766763687134,-0.7668797969818115,-0.14907339215278625,-0.1842499077320099,-0.46767759323120117,-0.8511623740196228,-0.634625256061554,1.2040935754776,-2.4137213230133057,-0.23373569548130035,-0.23202943801879883,-0.4772413372993469,-0.9022119045257568,0.5586152076721191,-0.49317818880081177,-0.2449866533279419,-0.030946649610996246,1.0034065246582031,-0.048651158809661865,-0.7120855450630188,-0.3734545111656189,0.10553161799907684,-0.5872374773025513,0.9035630226135254,-0.7721195220947266,-0.38452014327049255,0.8613812923431396,-0.45278745889663696
simple_08_B_b.png,0.1498301923274994,2.130474805831909,-0.9064931869506836,0.4731311798095703,-1.3640697002410889,-0.9822725653648376,0.21566316485404968,-0.9822987914085388,-0.011249453760683537,-0.75286465883255,-1.0000430345535278,0.8582117557525635,-1.700478196144104,0.35311758518218994,-0.058707740157842636,-0.12161590158939362,-1.0060359239578247,0.30401352047920227,-0.4413585364818573,0.5313166379928589,-0.34225380420684814,1.4572734832763672,-0.6208285093307495,-0.712573766708374,-0.9748575687408447,-0.15980663895606995,-0.6824343800544739,0.7087658643722534,-0.582872211933136,-0.4518195688724518,0.6195340156555176,0.0588669590651989
simple_08_B_c.png,0.04974817484617233,2.054659366607666,-0.9291340112686157,0.37637558579444885,-1.5533311367034912,-0.9578768014907837,0.32560044527053833,-1.0254234075546265,-0.14881661534309387,-0.8673183917999268,-0.8860493898391724,0.7526713609695435,-1.8043477535247803,0.32467421889305115,0.051254987716674805,-0.16439709067344666,-0.9674678444862366,0.14133158326148987,-0.29730674624443054,0.37895891070365906,-0.278848797082901,1.556504487991333,-0.613560676574707,-0.7353540062904358,-0.9061073660850525,0.0838492214679718,-0.8450069427490234,0.7598904371261597,-0.5282260179519653,-0.47342345118522644,0.5736709833145142,-0.10334450751543045
simple_08_B_d.png,0.1663251668214798,2.394066572189331,-1.1703978776931763,0.37188515067100525,-1.3612353801727295,-0.9210116267204285,0.07584322243928909,-0.8829871416091919,-0.1335456222295761,-0.7510103583335876,-0.9753838181495667,1.1830352544784546,-1.6020092964172363,0.30238327383995056,-0.30224472284317017,-0.5688146352767944,-1.0749539136886597,0.4648933410644531,-0.706425130367279,0.7634736895561218,-0.06789328902959824,1.778444528579712,-0.6841188073158264,-0.8260759711265564,-1.144460916519165,-0.15170817077159882,-0.7777837514877319,0.7801725268363953,-0.7727022767066956,-0.6094187498092651,0.5327842235565186,0.2267196625471115
simple_09_A_a.png,0.009465834125876427,0.13801151514053345,-0.20887495577335358,-1.4558162689208984,-1.0401241779327393,0.33511054515838623,0.7613452076911926,-2.1367833614349365,0.35372596979141235,0.10466151684522629,0.030514007434248924,1.3486506938934326,-2.488088846206665,0.3175022006034851,-0.49575942754745483,-1.069978952407837,-0.5895968079566956,1.2540442943572998,0.38026854395866394,0.7513726353645325,0.0482252798974514,2.633235216140747,-0.8761118054389954,-1.388615608215332,-1.318710446357727,0.5146670341491699,-0.06535160541534424,1.0220741033554077,-1.6804184913635254,-1.1392725706100464,0.44857823848724365,0.471373975276947
simple_09_A_b.png,-0.7023303508758545,1.548046588897705,-0.1495959758758545,-0.6443028450012207,-1.1440154314041138,-0.0490356869995594,0.6247187852859497,-0.9482722878456116,0.7466775178909302,0.7246224880218506,-0.8463956713676453,1.5801453590393066,-1.4721373319625854,-0.1223580539226532,-0.9034149646759033,-0.606022298336029,-0.27370685338974,0.981982409954071,0.19275584816932678,0.9461835026741028,0.13761620223522186,2.386514663696289,-1.1604361534118652,-1.084909439086914,-1.149876356124878,1.9141392707824707,-0.4006696045398712,1.2981977462768555,-0.9385143518447876,-0.8346207737922668,0.19087420403957367,0.6525307893753052
simple_09_A_c.png,-0.3254379332065582,1.800017237663269,-0.980298638343811,0.020180704072117805,-0.5073259472846985,-0.47110339999198914,0.5033746957778931,-1.2199324369430542,0.5223336815834045,-0.8865253925323486,-0.9514945149421692,0.9149348735809326,-1.3759219646453857,-0.549145519733429,-0.2363193929195404,-0.2746642529964447,-0.7422939538955688,0.2698075473308563,-0.5194835066795349,0.3236570656299591,-0.22075647115707397,1.8356237411499023,-0.516177237033844,-0.2869313657283783,-1.491901159286499,0.06592098623514175,-0.18100270628929138,1.2238008975982666,-1.1849148273468018,-0.11610712856054306,0.27271366119384766,0.45213037729263306
simple_09_A_d.png,-0.344597727060318,1.9428668022155762,-0.9478477239608765,-0.14987169206142426,-0.6861779689788818,-0.4630657434463501,0.4681941270828247,-1.2059634923934937,0.4808523952960968,-0.866148054599762,-0.7136985063552856,0.9513079524040222,-1.3912839889526367,-0.8283417820930481,-0.07970035076141357,-0.21346734464168549,-0.5865240097045898,0.29421570897102356,-0.34572142362594604,0.1971927434206009,-0.1473679095506668,1.7633851766586304,-0.5250539183616638,-0.31621885299682617,-1.4763448238372803,-0.006676245480775833,-0.18755260109901428,1.2068002223968506,-1.1878948211669922,-0.05545489117503166,0.5865166187286377,0.35023924708366394
simple_09_B_a.png,0.2724821865558624,1.2193657159805298,-0.8710823655128479,-0.38962510228157043,-0.8790169954299927,-0.38842248916625977,-0.2691321074962616,-1.5666218996047974,0.10803598910570145,-1.0252411365509033,-0.1503540277481079,1.0926111936569214,-2.140345811843872,-0.7474181652069092,-0.3063075840473175,-0.08084722608327866,-0.8843605518341064,0.44952622056007385,0.21369607746601105,0.6814601421356201,0.37747830152511597,1.7460695505142212,-0.38933977484703064,-0.10026431828737259,-1.4012213945388794,0.08989832550287247,0.007153325714170933,0.7313438653945923,-2.029212713241577,-0.3906128406524658,0.12381251156330109,-0.1794699728488922
simple_09_B_b.png,0.4026029407978058,1.4942364692687988,-0.6751731634140015,-0.23753315210342407,-0.8772733211517334,-0.2347462773323059,-0.54635089635849,-1.5172748565673828,0.263993501663208,-0.8881761431694031,-0.013184329494833946,1.100441336631775,-1.748873233795166,-1.2395237684249878,-0.4659474492073059,0.012441514059901237,-0.8386926651000977,0.44499310851097107,0.18886499106884003,0.4056735932826996,0.4605275094509125,1.6536601781845093,-0.2618725895881653,0.04864804446697235,-1.367607831954956,-0.021663011983036995,-0.10020986199378967,0.681671679019928,-2.3768959045410156,-0.4800247848033905,0.24047428369522095,-0.1658594310283661
simple_09_B_c.png,0.392374724149704,1.5171012878417969,-0.7115513682365417,-0.2420857697725296,-0.928197979927063,-0.2391776293516159,-0.5721145868301392,-1.5019556283950806,0.29604360461235046,-0.9571701884269714,-0.06885989010334015,1.0769325494766235,-1.8644180297851562,-1.2477706670761108,-0.5399696826934814,-0.020762715488672256,-0.8772599697113037,0.5386472940444946,0.16052691638469696,0.4662986695766449,0.4927578568458557,1.6711970567703247,-0.28078874945640564,0.07625959813594818,-1.4197337627410889,-0.010854151099920273,-0.07679639756679535,0.6599099636077881,-2.4014623165130615,-0.4532964825630188,0.21984128654003143,-0.1289522498846054
simple_09_B_d.png,0.40322932600975037,1.1543641090393066,-0.5762966871261597,-0.39637747406959534,-1.1665215492248535,-0.23967258632183075,-0.22086648643016815,-1.4632787704467773,0.100126713514328,-0.7885783314704895,0.29767510294914246,1.2686492204666138,-1.8494510650634766,-0.5938292741775513,-0.2855406403541565,-0.044039659202098846,-0.973850667476654,0.19068486988544464,0.5645561218261719,0.18226806819438934,0.21866731345653534,1.849531888961792,-0.3503229022026062,0.05677131190896034,-1.0804080963134766,-0.1679762601852417,-0.12402473390102386,0.6803840398788452,-2.0378260612487793,-0.6071193218231201,-0.32991769909858704,-0.3222346305847168
simple_10_A_a.png,-0.17947860062122345,1.2191674709320068,-0.47721320390701294,-1.5264867544174194,-2.2895870208740234,-0.12527261674404144,0.9215365648269653,-1.1078479290008545,-0.8727892637252808,-0.713412344455719,-0.10833972692489624,0.6708635687828064,-2.6241395473480225,0.5664372444152832,0.5993344187736511,-1.3492650985717773,-0.7136475443840027,1.0188766717910767,-0.2539840340614319,1.5005910396575928,0.7185712456703186,1.2891002893447876,-1.0944420099258423,-1.6296918392181396,0.1915484517812729,0.6652161478996277,-1.6777135133743286,1.7615888118743896,-1.247348666191101,-1.3972883224487305,0.9573830366134644,-0.45521309971809387
simple_10_A_b.png,-0.7150794267654419,1.554564356803894,-0.39393123984336853,-1.0470061302185059,-1.4524306058883667,-0.5560927391052246,1.1565752029418945,-1.0717920064926147,-0.5340595841407776,-0.03494512289762497,-0.11153902113437653,1.0912247896194458,-2.899155855178833,0.43729400634765625,0.151308074593544,-1.0072256326675415,-0.9379196763038635,0.6304010152816772,0.2977076768875122,1.3604955673217773,0.6997605562210083,1.278656005859375,-0.6614043712615967,-1.0223029851913452,-0.09980364143848419,0.8743778467178345,-1.3074036836624146,1.3977564573287964,-0.8375943899154663,-1.4416199922561646,0.27800634503364563,-0.4962833821773529
simple_10_A_c.png,0.5165095329284668,2.021789789199829,-1.2638969421386719,-0.2466777116060257,-1.340563416481018,-0.15851333737373352,0.34081313014030457,0.1891949325799942,-0.8351612687110901,-0.4002975821495056,-0.16031301021575928,1.5899267196655273,-2.1447126865386963,0.2868627607822418,-0.5533174872398376,-0.5706745982170105,-0.9317945241928101,0.6744059920310974,-0.418138325214386,0.08130991458892822,-0.2714722752571106,1.5060343742370605,-0.007056949194520712,-1.0583574771881104,-0.26187703013420105,-0.19314253330230713,-0.6217052936553955,0.8725908994674683,-2.288088083267212,-1.000393271446228,0.8220002055168152,-1.350844383239746
simple_10_A_d.png,0.652014970779419,2.197809934616089,-1.1133103370666504,-0.280930757522583,-1.3969357013702393,-0.027243468910455704,0.07696332782506943,0.5829192399978638,-0.8784281015396118,-0.45340633392333984,-0.4356825053691864,1.4957422018051147,-2.2935872077941895,0.2417190670967102,-0.9530573487281799,-0.6800972819328308,-1.0807064771652222,0.5397274494171143,-0.6846140623092651,-0.07975653558969498,-0.21006597578525543,1.3039077520370483,0.12666891515254974,-1.1308645009994507,-0.17239871621131897,-0.33688926696777344,-0.6879546046257019,0.88956618309021,-2.147260904312134,-0.881528913974762,0.7859968543052673,-1.5075362920761108
simple_10_B_a.png,0.8099871873855591,1.8877571821212769,-0.8794007897377014,0.057939328253269196,-1.8557353019714355,-0.532914936542511,-0.40003839135169983,-0.144801065325737,-0.43750497698783875,-0.26013368368148804,-0.24955794215202332,1.7790226936340332,-2.5205109119415283,0.49425676465034485,0.13337431848049164,-0.17646563053131104,-0.8256576657295227,0.7537902593612671,-0.19536960124969482,0.555754542350769,0.2395775467157364,1.0468860864639282,-0.43965625762939453,-0.5352447032928467,-0.30816537141799927,0.1434895545244217,-0.5265161991119385,0.9705258011817932,-1.421486496925354,-0.8239027261734009,0.7446089386940002,-0.6532374024391174
simple_10_B_b.png,1.021105170249939,1.4065560102462769,-0.9093368053436279,-0.008300981484353542,-1.2962111234664917,-0.10320837795734406,-0.7631516456604004,0.17420177161693573,-0.5821189284324646,-0.5414731502532959,-0.23335449397563934,1.4799630641937256,-2.2350997924804688,0.29877492785453796,-0.31440988183021545,-0.2680816948413849,-0.913809597492218,0.6211758255958557,-0.5121946930885315,-0.10071095079183578,0.3450796902179718,0.7856137752532959,-0.051922351121902466,-0.6346307396888733,-0.6706081032752991,-0.6938915252685547,-0.11278532445430756,0.7183833718299866,-1.2632086277008057,-0.07935464382171631,0.40034791827201843,-0.6032903790473938
simple_10_B_c.png,0.9683544039726257,1.263522744178772,-0.9790839552879333,-0.15149566531181335,-1.5859681367874146,-0.21538878977298737,-0.915145218372345,0.015412838198244572,-0.5152018070220947,-0.566540539264679,-0.21431410312652588,1.4251538515090942,-2.2974984645843506,0.27815744280815125,-0.026840001344680786,-0.46556490659713745,-0.8438338041305542,0.49567344784736633,-0.5219372510910034,0.0901983305811882,0.4111398458480835,0.6360917091369629,-0.2071148306131363,-0.35740289092063904,-0.8293420672416687,-0.47006815671920776,0.01573881134390831,0.8428986668586731,-1.2291748523712158,-0.052649255841970444,0.08557629585266113,-0.5966717004776001
simple_10_B_d.png,0.9304622411727905,1.394897222518921,-0.8176060318946838,-0.002260342240333557,-1.5391473770141602,-0.23790739476680756,-0.5893940925598145,-0.07847876846790314,-0.4822045564651489,-0.6814639568328857,-0.20783469080924988,1.5490365028381348,-2.3805477619171143,0.3849433362483978,-0.27197423577308655,-0.4888041615486145,-0.8985602855682373,0.6621903777122498,-0.32344794273376465,-0.002621171297505498,0.2968476414680481,0.7657021284103394,-0.4099888801574707,-0.5461452007293701,-0.7630118727684021,-0.29578137397766113,-0.25437989830970764,0.9539984464645386,-1.19771146774292,-0.12870390713214874,0.29398664832115173,-0.5271856784820557
simple_11_A_a.png,0.8209658265113831,0.7386124730110168,-0.5702235698699951,-0.6700877547264099,-1.1541213989257812,0.8084285855293274,-0.172288179397583,-1.7409186363220215,-0.31571707129478455,-1.1897836923599243,-1.4271233081817627,0.7537041306495667,-1.836023211479187,-0.019588934257626534,0.6166762709617615,-0.6184316873550415,-0.007653521373867989,1.6893545389175415,-0.39252468943595886,0.7375998497009277,0.743431031703949,1.4881595373153687,-1.2934421300888062,-0.8940021991729736,-0.9697199463844299,-0.23406468331813812,0.17877569794654846,1.083482027053833,-0.8497137427330017,0.12565641105175018,1.286844253540039,0.8296944499015808
simple_11_A_b.png,0.8945630192756653,1.5060659646987915,-1.1974780559539795,-0.19876764714717865,-1.197265625,0.6889689564704895,-0.6875222325325012,-2.135575294494629,-0.14343909919261932,-1.7626605033874512,-1.6040396690368652,0.44749465584754944,-2.377980947494507,-0.09929239004850388,0.7240505814552307,-1.0831563472747803,-0.17787957191467285,1.5617451667785645,-0.9085994362831116,1.2550638914108276,1.9971843957901,2.451977014541626,-1.5888646841049194,-1.7482051849365234,-1.9718854427337646,0.6547438502311707,-0.1631406843662262,0.9555564522743225,-1.363209843635559,-1.093665361404419,0.8050050735473633,1.0257498025894165
simple_11_A_c.png,1.3273069858551025,1.50714111328125,-1.8856749534606934,0.6168912053108215,-1.6398236751556396,-0.5336019396781921,-0.33551910519599915,-1.3132573366165161,0.590178370475769,-1.219941258430481,-1.1842212677001953,0.1546686589717865,-2.4137320518493652,1.161724328994751,0.8516815304756165,-0.317458838224411,-0.10685151070356369,1.310541033744812,-1.4178956747055054,1.0094226598739624,1.185505986213684,0.6767181158065796,-1.7794876098632812,-0.2906528413295746,-1.8740813732147217,0.5129668712615967,0.4027373492717743,0.29319238662719727,-1.5711711645126343,-1.1726824045181274,1.4931584596633911,0.7567802667617798
simple_11_A_d.png,1.1705408096313477,0.7886913418769836,-2.081993341445923,0.15459725260734558,-1.5015604496002197,-0.7124396562576294,-0.5048469305038452,-1.3139411211013794,0.8408384919166565,-0.9180231094360352,-0.7793681025505066,0.22241544723510742,-2.3619816303253174,0.8369381427764893,1.1867724657058716,0.0652937963604927,0.1999034881591797,0.8419365882873535,-1.3491235971450806,0.795928955078125,0.9614613056182861,0.49854788184165955,-1.4242076873779297,-0.018712302669882774,-1.3926774263381958,0.8197905421257019,0.7850245833396912,0.2623492479324341,-1.473649501800537,-0.9335115551948547,1.002650260925293,-0.017307031899690628
simple_11_B_a.png,0.8472952246665955,0.4010244905948639,-1.853624939918518,0.05083312839269638,-1.4490922689437866,-0.23468884825706482,-0.851496160030365,-0.8604140877723694,0.2510404884815216,-1.0018953084945679,-0.8070550560951233,0.31294533610343933,-2.2917516231536865,0.22771841287612915,0.9552962779998779,-0.5695551037788391,-0.05020485073328018,0.6239176988601685,-1.1016151905059814,0.01535293459892273,0.7567136883735657,0.5977175831794739,-1.483685851097107,-0.4798567295074463,-0.7124255895614624,-0.08933728188276291,0.7912473082542419,0.5565338730812073,-1.1002790927886963,-0.35624754428863525,0.6505728960037231,0.05555903911590576
simple_11_B_b.png,0.8532639145851135,0.08974270522594452,-2.0337090492248535,-0.01651851274073124,-1.166661024093628,-0.35694149136543274,-0.9312322735786438,-1.3389439582824707,0.19217373430728912,-1.2251155376434326,-0.7535710334777832,0.7723726630210876,-2.6509900093078613,-0.10024470835924149,0.9341665506362915,-0.45875152945518494,-0.19029289484024048,0.7325128316879272,-1.0311497449874878,0.009168580174446106,0.5608127117156982,1.1108959913253784,-1.4386645555496216,-0.5310083627700806,-1.03606116771698,0.05567280948162079,0.5733323097229004,0.1309788078069687,-1.1444108486175537,-0.48485255241394043,0.2471737414598465,0.11430496722459793
simple_11_B_c.png,0.7439591884613037,0.1977202445268631,-2.0098469257354736,0.035150524228811264,-1.2582602500915527,-0.42757901549339294,-0.8424917459487915,-1.1286317110061646,0.27918344736099243,-1.2066912651062012,-0.9196179509162903,0.7914950847625732,-2.600526809692383,0.10600050538778305,1.0409915447235107,-0.44146984815597534,-0.17164820432662964,0.6798561215400696,-0.9911002516746521,0.06157822161912918,0.7037339210510254,1.0153775215148926,-1.5180293321609497,-0.6350648403167725,-1.1073729991912842,0.05544278398156166,0.6057634353637695,0.19268636405467987,-1.12978994846344,-0.4989616870880127,0.39167481660842896,0.19632700085639954
simple_11_B_d.png,0.46980807185173035,-0.19701485335826874,-1.965671420097351,-0.13618092238903046,-0.9352505207061768,-0.33020442724227905,-1.044724464416504,-1.4138919115066528,0.16928355395793915,-1.1490737199783325,-0.8047206401824951,0.8004292249679565,-2.6121678352355957,0.011889330111443996,1.1830365657806396,-0.5638117790222168,-0.253074049949646,0.7085755467414856,-0.6445090174674988,0.07112583518028259,0.42906510829925537,1.3862571716308594,-1.7944658994674683,-0.6232064962387085,-0.8937569260597229,-0.007112219929695129,0.2860914170742035,0.19721269607543945,-0.922396719455719,-0.9052366614341736,0.04927368462085724,0.39723309874534607
simple_12_A_a.png,0.13128598034381866,1.314037561416626,-0.6648523211479187,-0.755034327507019,-1.1113165616989136,-0.004734395071864128,0.6297029852867126,-2.160728931427002,0.43459367752075195,-0.21940430998802185,-0.36317557096481323,1.4580391645431519,-1.9967247247695923,0.006704363040626049,-0.6931837797164917,-0.2618566155433655,-0.34653589129447937,1.3090702295303345,0.056666966527700424,0.9110643267631531,0.6578294634819031,2.4406487941741943,-0.5555656552314758,-1.0862373113632202,-1.2884150743484497,0.8536121845245361,-0.1868903934955597,1.3279895782470703,-1.7804749011993408,-1.1849069595336914,0.6169022917747498,0.05568953603506088
simple_12_A_b.png,-0.5520331263542175,2.593341827392578,-0.1268060952425003,-0.7457529902458191,-2.152862071990967,-0.3292680084705353,0.29035264253616333,-0.8367322087287903,0.18626181781291962,0.39173880219459534,-0.8042967915534973,1.3503036499023438,-1.535348653793335,-0.3019784390926361,-0.6910141706466675,-0.6610843539237976,-0.31335434317588806,1.106542706489563,-0.057475969195365906,0.6457011103630066,0.7070454359054565,1.6905609369277954,-0.6351692080497742,-0.741032600402832,-0.7544826865196228,2.0443174839019775,-0.6631218791007996,1.6866278648376465,-0.9282577037811279,-1.0846140384674072,0.926133394241333,0.4442117512226105
simple_12_A_c.png,-0.5712267756462097,2.2553868293762207,-0.8713042736053467,-0.2892387807369232,-0.8014108538627625,-0.2987476587295532,0.30335214734077454,-1.1959331035614014,0.5724372863769531,-0.47995230555534363,-1.0895951986312866,0.8848243951797485,-1.1424551010131836,-0.6241554617881775,-0.1334354430437088,0.04978058859705925,-0.21486039459705353,-0.30144202709198,-0.5567288398742676,0.3831830322742462,-0.18875542283058167,1.6107029914855957,-0.6523181796073914,0.07947467267513275,-1.3635088205337524,0.20868073403835297,-0.5443016290664673,0.9039058089256287,-0.6979260444641113,-0.3139394223690033,0.6820681691169739,0.3013787865638733
simple_12_A_d.png,-0.4834696650505066,2.2295446395874023,-0.8964748382568359,-0.42518505454063416,-1.1273342370986938,-0.20510922372341156,0.2826552987098694,-1.2325388193130493,0.5287302732467651,-0.10279469937086105,-1.0778558254241943,0.7475728988647461,-1.0926569700241089,-0.6470683217048645,-0.13154208660125732,-0.12723900377750397,-0.2034691572189331,-0.3727762699127197,-0.5644242763519287,0.3723272383213043,-0.2953754961490631,1.625853419303894,-0.6570252776145935,0.16484510898590088,-1.2545324563980103,0.2663273513317108,-0.3108212351799011,0.7795295715332031,-0.5553948283195496,-0.5219197869300842,0.6469405293464661,0.38808247447013855
simple_12_B_a.png,-0.34837576746940613,1.8954849243164062,-0.7036147117614746,-0.17837075889110565,-1.1415770053863525,-0.2706349790096283,0.19920282065868378,-1.2394177913665771,0.07815130800008774,-0.06407013535499573,-1.3071022033691406,0.5416498780250549,-1.1948809623718262,-0.46338140964508057,-0.18782752752304077,-0.4018232822418213,-0.10698847472667694,-0.3066459894180298,-0.8563665747642517,0.1481291502714157,-0.17369364202022552,1.7955173254013062,-0.8097375631332397,-0.010625312104821205,-1.0309245586395264,-0.11424948275089264,0.2601877450942993,1.0684090852737427,-0.5462701916694641,-0.8489630222320557,0.2420312613248825,-0.03227010369300842
simple_12_B_b.png,-0.44735848903656006,1.7075592279434204,-0.7139886021614075,-0.33297309279441833,-1.164109230041504,-0.21419678628444672,0.42682021856307983,-1.5880506038665771,0.2698076069355011,-0.11700834333896637,-1.15827476978302,0.5290405750274658,-1.3991763591766357,-0.4582729935646057,-0.10126736760139465,-0.1874537318944931,-0.12102272361516953,-0.2878824770450592,-0.5187358856201172,0.4130801856517792,-0.05892426520586014,1.9106587171554565,-0.7228320240974426,0.10480235517024994,-0.9711581468582153,0.1343565434217453,0.02317376621067524,0.9338983297348022,-0.613348662853241,-1.0116922855377197,0.04664881154894829,-0.24395237863063812
simple_12_B_c.png,-0.4421283006668091,1.8386954069137573,-0.8010903596878052,-0.23011018335819244,-1.1972843408584595,-0.2242061197757721,0.31365063786506653,-1.504093885421753,0.13682770729064941,0.02014121226966381,-1.1989221572875977,0.6720328330993652,-1.270649790763855,-0.3567597270011902,-0.07984276115894318,-0.25330087542533875,-0.061940260231494904,-0.2591627538204193,-0.6917436122894287,0.3716154992580414,-0.1569310873746872,1.7852275371551514,-0.9132257699966431,0.03860298544168472,-0.9484565854072571,-0.05649517849087715,0.2527386248111725,0.917564868927002,-0.5857975482940674,-1.0422487258911133,0.0572345070540905,-0.021913880482316017
simple_12_B_d.png,-0.39486396312713623,1.9906983375549316,-0.654273509979248,-0.17204956710338593,-1.213118314743042,-0.16885046660900116,0.23932552337646484,-1.3270140886306763,-0.027187103405594826,-0.12256556004285812,-1.313147783279419,0.5483564138412476,-1.2289690971374512,-0.4052422344684601,-0.16237753629684448,-0.286032497882843,-0.1081329807639122,-0.37018057703971863,-0.7968605756759644,0.24083013832569122,-0.1750602126121521,1.7885723114013672,-0.8017343878746033,0.007253989577293396,-1.0604839324951172,-0.049456752836704254,0.23399069905281067,0.9278255105018616,-0.537316620349884,-0.9406837224960327,0.2681123912334442,-0.013480265624821186
simple_13_A_a.png,1.4303627014160156,1.6570680141448975,-0.8836950063705444,-1.0278948545455933,-1.5245157480239868,0.37532883882522583,0.2777107059955597,-2.0052270889282227,0.6106536984443665,-0.7076331377029419,-0.6022111773490906,0.6715711355209351,-2.7821285724639893,-0.672423243522644,1.2987576723098755,-0.29645660519599915,-0.972773015499115,1.7605208158493042,0.7423555254936218,1.0981955528259277,1.6862233877182007,1.854954481124878,0.40948355197906494,-0.9552109837532043,-1.0839554071426392,2.025075674057007,0.04637555032968521,0.8734621405601501,-3.3035216331481934,-1.7227603197097778,1.1129672527313232,-0.7171602845191956
simple_13_A_b.png,1.1332802772521973,1.4700865745544434,-0.13588720560073853,-1.1666202545166016,-1.1597907543182373,-0.14721468091011047,1.0293022394180298,-1.7918061017990112,0.9783793687820435,-0.9132623076438904,-0.6415496468544006,1.392812728881836,-3.0053794384002686,-0.04199405387043953,0.8785319328308105,-0.3873021900653839,-0.5210386514663696,1.441322684288025,0.8376443982124329,1.0270521640777588,1.0040616989135742,0.9064413905143738,0.385053426027298,-1.465908408164978,-1.2407822608947754,0.8777028322219849,0.03958914428949356,0.8848009705543518,-2.029404401779175,-0.7922395467758179,1.261702060699463,-0.09803739935159683
simple_13_A_c.png,1.226257085800171,0.8527575135231018,-1.7193399667739868,-0.22899900376796722,-0.4132813811302185,-0.4706825315952301,0.1246713250875473,-0.9685701727867126,0.5253524780273438,-0.9360848665237427,-1.082751750946045,-0.07899993658065796,-1.9784268140792847,-0.18704019486904144,0.32986685633659363,0.21078872680664062,-0.8007187247276306,0.5352177619934082,0.2313459813594818,1.0158178806304932,0.8383380770683289,1.3961193561553955,0.5378223657608032,-0.42073294520378113,-0.2741168737411499,1.0379090309143066,0.06373780965805054,-0.33185917139053345,-2.4491307735443115,-1.1829854249954224,0.8075199127197266,-0.5860412120819092
simple_13_A_d.png,1.3837890625,0.9232851266860962,-1.7400263547897339,-0.18376600742340088,-0.32862722873687744,-0.4455311596393585,0.11995167285203934,-0.8356086611747742,0.3283351957798004,-0.94362473487854,-1.0851067304611206,-0.16677048802375793,-1.9019982814788818,-0.23821993172168732,0.4305998980998993,0.2629300057888031,-0.7239390015602112,0.5085870623588562,0.2686527967453003,0.8620799779891968,0.8935617208480835,1.4026798009872437,0.7427528500556946,-0.42238637804985046,-0.0767456665635109,1.0139787197113037,0.17580269277095795,-0.3611011803150177,-2.478991985321045,-1.117072582244873,0.8649465441703796,-0.730841875076294
simple_13_B_a.png,1.0650622844696045,1.6509006023406982,-0.8383526802062988,0.02437213808298111,-0.7190535664558411,-0.12316261976957321,-0.40146806836128235,-1.1197458505630493,0.35012370347976685,-1.322656273841858,-0.6449905633926392,0.5826694369316101,-1.979992151260376,0.08822082728147507,1.0038135051727295,0.2549099326133728,0.21857038140296936,1.1978769302368164,-0.1344238817691803,1.0606533288955688,0.9926756024360657,0.5975596308708191,0.10481695085763931,-0.6839157938957214,-1.3027845621109009,0.9379327297210693,0.6199594140052795,0.5084599256515503,-2.7994861602783203,-1.0413222312927246,0.9292837977409363,-0.15892042219638824
simple_13_B_b.png,0.6612605452537537,0.576257050037384,-0.8380460143089294,0.06188465654850006,-0.9856888055801392,-0.5465753078460693,-0.40292227268218994,-0.8642037510871887,-0.10770230740308762,-1.015683889389038,-0.5314430594444275,0.9588901996612549,-2.6725995540618896,-0.03748609498143196,0.4672468602657318,-0.19698862731456757,-0.07956860959529877,1.0967758893966675,-0.16493938863277435,0.898348331451416,0.9702409505844116,0.9446327686309814,-0.15578964352607727,-0.9874404668807983,-0.1478019505739212,1.131516695022583,0.5476256012916565,0.5898709297180176,-2.555009126663208,-0.9000781774520874,0.4953298270702362,0.4057484567165375
simple_13_B_c.png,0.7880399823188782,0.7584949135780334,-1.049261450767517,0.07206006348133087,-0.8910316824913025,-0.419584184885025,-0.5460585355758667,-0.7826014757156372,-0.10337049514055252,-1.0504025220870972,-0.5988855957984924,0.9826986789703369,-2.55291485786438,-0.07628098875284195,0.5180455446243286,-0.20384709537029266,-0.11301449686288834,1.0214720964431763,-0.10427992790937424,0.9327163100242615,0.9108996987342834,0.8842832446098328,-0.09705270081758499,-1.0598686933517456,-0.3422006070613861,1.0747021436691284,0.6883019208908081,0.5596643090248108,-2.5010290145874023,-0.9891238808631897,0.5700893998146057,0.46214282512664795
simple_13_B_d.png,0.7080680727958679,0.6598895192146301,-0.8396230936050415,0.09145747870206833,-0.8860589861869812,-0.37913626432418823,-0.5088878273963928,-0.918486475944519,0.0067498874850571156,-0.9707387089729309,-0.4424700438976288,0.9347259402275085,-2.595864772796631,0.1509643942117691,0.4922253489494324,-0.14065472781658173,-0.060653164982795715,0.8421676158905029,-0.028173962607979774,1.0287256240844727,1.0716159343719482,0.7811663746833801,-0.13476991653442383,-0.9967007637023926,-0.37372758984565735,1.0476559400558472,0.5990397930145264,0.6000667810440063,-2.346489191055298,-0.8179433941841125,0.49347618222236633,0.3953078091144562
simple_14_A_a.png,-0.2401498705148697,0.9358248710632324,-0.08709144592285156,-1.7229557037353516,-0.9260797500610352,-0.583564043045044,1.5334739685058594,-1.1295944452285767,-0.31376510858535767,-0.1335175633430481,-0.4621885120868683,0.1867104172706604,-1.2271203994750977,-0.32854941487312317,-0.5904235243797302,-0.6084813475608826,-0.4996902346611023,0.5230644345283508,0.6661614179611206,0.6236879825592041,-0.19409866631031036,1.6525839567184448,0.7817921042442322,-1.7026900053024292,0.4285525679588318,0.2981144189834595,0.3416907489299774,-0.05286090821027756,-1.19487726688385,-0.3055984079837799,0.42674559354782104,0.08102590590715408
simple_14_A_b.png,-0.1972196400165558,0.9848853945732117,-0.4155353903770447,-1.7727106809616089,-1.088030219078064,-0.9840545058250427,0.591011643409729,-1.915639042854309,-0.40806904435157776,-0.5103803873062134,-0.6498363614082336,0.009996458888053894,-1.4660402536392212,0.2846924960613251,-0.3788772225379944,-0.453982412815094,-0.10421004891395569,0.36753255128860474,0.23456397652626038,0.6290506720542908,0.13665536046028137,2.479789972305298,0.158622607588768,-1.7960374355316162,0.03632987663149834,0.27399998903274536,0.5198233127593994,-0.11425749212503433,-1.0062357187271118,-0.4942331612110138,0.7075911164283752,0.22586628794670105
